/* Generated by Edge Impulse
 *
 * Permission is hereby granted, free of charge, to any person obtaining a copy
 * of this software and associated documentation files (the "Software"), to deal
 * in the Software without restriction, including without limitation the rights
 * to use, copy, modify, merge, publish, distribute, sublicense, and/or sell
 * copies of the Software, and to permit persons to whom the Software is
 * furnished to do so, subject to the following conditions:
 *
 * The above copyright notice and this permission notice shall be included in
 * all copies or substantial portions of the Software.
 *
 * THE SOFTWARE IS PROVIDED "AS IS", WITHOUT WARRANTY OF ANY KIND, EXPRESS OR
 * IMPLIED, INCLUDING BUT NOT LIMITED TO THE WARRANTIES OF MERCHANTABILITY,
 * FITNESS FOR A PARTICULAR PURPOSE AND NONINFRINGEMENT. IN NO EVENT SHALL THE
 * AUTHORS OR COPYRIGHT HOLDERS BE LIABLE FOR ANY CLAIM, DAMAGES OR OTHER
 * LIABILITY, WHETHER IN AN ACTION OF CONTRACT, TORT OR OTHERWISE, ARISING FROM,
 * OUT OF OR IN CONNECTION WITH THE SOFTWARE OR THE USE OR OTHER DEALINGS IN THE
 * SOFTWARE.
 */
// Generated on: 05.11.2023 13:53:57

#include <stdio.h>
#include <stdlib.h>
#include "edge-impulse-sdk/tensorflow/lite/c/builtin_op_data.h"
#include "edge-impulse-sdk/tensorflow/lite/c/common.h"
#include "edge-impulse-sdk/tensorflow/lite/micro/micro_mutable_op_resolver.h"
#include "edge-impulse-sdk/porting/ei_classifier_porting.h"

#if EI_CLASSIFIER_PRINT_STATE
#if defined(__cplusplus) && EI_C_LINKAGE == 1
extern "C" {
    extern void ei_printf(const char *format, ...);
}
#else
extern void ei_printf(const char *format, ...);
#endif
#endif

#if defined __GNUC__
#define ALIGN(X) __attribute__((aligned(X)))
#elif defined _MSC_VER
#define ALIGN(X) __declspec(align(X))
#elif defined __TASKING__
#define ALIGN(X) __align(X)
#elif defined __ICCARM__
#define ALIGN(x) __attribute__((aligned(x)))
#endif

#ifndef EI_MAX_SCRATCH_BUFFER_COUNT
#ifndef CONFIG_IDF_TARGET_ESP32S3
#define EI_MAX_SCRATCH_BUFFER_COUNT 4
#else
#define EI_MAX_SCRATCH_BUFFER_COUNT 4
#endif // CONFIG_IDF_TARGET_ESP32S3
#endif // EI_MAX_SCRATCH_BUFFER_COUNT

#ifndef EI_MAX_OVERFLOW_BUFFER_COUNT
#define EI_MAX_OVERFLOW_BUFFER_COUNT 10
#endif // EI_MAX_OVERFLOW_BUFFER_COUNT

using namespace tflite;
using namespace tflite::ops;
using namespace tflite::ops::micro;

namespace {

#if defined(EI_CLASSIFIER_ALLOCATION_STATIC_HIMAX) || defined(EI_CLASSIFIER_ALLOCATION_STATIC_HIMAX_GNU)
constexpr int kTensorArenaSize = 906448;
#else
constexpr int kTensorArenaSize = 905424;
#endif

#if defined(EI_CLASSIFIER_ALLOCATION_STATIC)
uint8_t tensor_arena[kTensorArenaSize] ALIGN(16);
#elif defined(EI_CLASSIFIER_ALLOCATION_STATIC_HIMAX)
#pragma Bss(".tensor_arena")
uint8_t tensor_arena[kTensorArenaSize] ALIGN(16);
#pragma Bss()
#elif defined(EI_CLASSIFIER_ALLOCATION_STATIC_HIMAX_GNU)
uint8_t tensor_arena[kTensorArenaSize] ALIGN(16) __attribute__((section(".tensor_arena")));
#else
#define EI_CLASSIFIER_ALLOCATION_HEAP 1
uint8_t* tensor_arena = NULL;
#endif

static uint8_t* tensor_boundary;
static uint8_t* current_location;

template <int SZ, class T> struct TfArray {
  int sz; T elem[SZ];
};
enum used_operators_e {
  OP_CONV_2D, OP_DEPTHWISE_CONV_2D, OP_PAD, OP_ADD, OP_SOFTMAX,  OP_LAST
};
struct TensorInfo_t { // subset of TfLiteTensor used for initialization from constant memory
  TfLiteAllocationType allocation_type;
  TfLiteType type;
  void* data;
  TfLiteIntArray* dims;
  size_t bytes;
};
struct NodeInfo_t { // subset of TfLiteNode used for initialization from constant memory
  struct TfLiteIntArray* inputs;
  struct TfLiteIntArray* outputs;
  void* builtin_data;
  used_operators_e used_op_index;
};

typedef struct {
  TfLiteTensor tensor;
  int16_t index;
} TfLiteTensorWithIndex;

typedef struct {
  TfLiteEvalTensor tensor;
  int16_t index;
} TfLiteEvalTensorWithIndex;

TfLiteContext ctx{};
static const int MAX_TFL_TENSOR_COUNT = 4;
static TfLiteTensorWithIndex tflTensors[MAX_TFL_TENSOR_COUNT];
static const int MAX_TFL_EVAL_COUNT = 4;
static TfLiteEvalTensorWithIndex tflEvalTensors[MAX_TFL_EVAL_COUNT];
TfLiteRegistration registrations[OP_LAST];
TfLiteNode tflNodes[27];

const TfArray<4, int> tensor_dimension0 = { 4, { 1,96,96,3 } };
const ALIGN(16) float tensor_data1[32] = { -1.2863782644271851, -1.1870834827423096, -1.2010848522186279, -1.2010561227798462, -0.97608935832977295, 1.4396946430206299, -1.177411675453186, -1.2008870840072632, -1.1701837778091431, -1.2010906934738159, -1.2010904550552368, -1.2461860179901123, -0.57996922731399536, -1.1989946365356445, -0.65607273578643799, -1.2614353895187378, -1.201081395149231, -0.59231412410736084, -0.93317890167236328, 1.1799482107162476, -1.2010705471038818, -1.2006878852844238, -1.2000734806060791, -0.80382996797561646, -1.2254338264465332, -1.2001360654830933, -1.201085090637207, -1.2010887861251831, -0.15605032444000244, -1.10118567943573, 0.52319443225860596, -1.2010917663574219, };
const TfArray<1, int> tensor_dimension1 = { 1, { 32 } };
const ALIGN(16) int32_t tensor_data2[4*2] = { 
  0, 0, 
  0, 1, 
  0, 1, 
  0, 0, 
};
const TfArray<2, int> tensor_dimension2 = { 2, { 4,2 } };
const ALIGN(16) float tensor_data3[16] = { -1.40682053565979, -9.9479808807373047, -17.408367156982422, 0.54512310028076172, 1.8073362112045288, -21.88525390625, 5.2869596481323242, -20.342819213867188, 2.0085685253143311, 2.7477371692657471, 3.933779239654541, 5.6684484481811523, -1.2384405136108398, -0.54783189296722412, 4.3603124618530273, -0.13350634276866913, };
const TfArray<1, int> tensor_dimension3 = { 1, { 16 } };
const ALIGN(16) float tensor_data4[16] = { -0.30109995603561401, 1.1622766256332397, -1.7334719896316528, 4.107025146484375, 9.2406139373779297, 3.3798532485961914, 5.2120542526245117, 8.9790334701538086, -2.4714641571044922, 0.93422114849090576, 4.8913602828979492, 15.810518264770508, -0.32396247982978821, -4.7870006561279297, -1.4825108051300049, -0.41642889380455017, };
const TfArray<1, int> tensor_dimension4 = { 1, { 16 } };
const ALIGN(16) float tensor_data5[48] = { -3.8345274925231934, 0.71258044242858887, -1.8269287347793579, 0.34240284562110901, 3.1177299022674561, 2.5721189975738525, 2.631521463394165, -2.1191160678863525, 2.1730918884277344, -0.47225308418273926, 1.8530797958374023, -0.51421445608139038, 0.57477521896362305, -0.16218365728855133, 3.6534929275512695, 4.7271323204040527, -0.1309230625629425, -2.357144832611084, -0.6978527307510376, 3.0831334590911865, -0.98445284366607666, -1.2412928342819214, -0.14018942415714264, -0.36470812559127808, 3.1703360080718994, 0.48925113677978516, 1.0282318592071533, 1.1761727333068848, 1.3517633676528931, 4.2953295707702637, 2.9113030433654785, 3.5330877304077148, 0.0098349405452609062, 4.8368058204650879, 1.7109594345092773, -1.3867858648300171, 0.84267246723175049, 2.6099538803100586, -1.4087657928466797, 3.9578554630279541, 3.5129768848419189, -2.2742071151733398, 0.72986721992492676, 0.41916108131408691, 4.0648021697998047, 0.55239832401275635, 3.1487181186676025, 1.8166695833206177, };
const TfArray<1, int> tensor_dimension5 = { 1, { 48 } };
const ALIGN(16) float tensor_data6[48] = { 4.8360104560852051, -2.8896815776824951, 2.6577000617980957, 1.6376841068267822, 6.736480712890625, -0.096163272857666016, -1.3429572582244873, 0.888702392578125, 3.8301761150360107, -1.2272661924362183, -1.0067089796066284, 2.2399158477783203, -3.3102703094482422, -0.70510011911392212, 5.1542458534240723, 8.6100044250488281, -0.56034213304519653, -0.19301754236221313, 3.4969942569732666, 1.4597097635269165, -0.54961252212524414, -3.919724702835083, 8.6996526718139648, -0.31436145305633545, 0.57527589797973633, -0.34155642986297607, 1.9126992225646973, 2.3087966442108154, -1.5913723707199097, -1.0766584873199463, -1.8590253591537476, -2.2279362678527832, -3.1235709190368652, -0.85469341278076172, 4.3882417678833008, 1.8651129007339478, -2.4124641418457031, -2.217512845993042, 5.5520229339599609, -1.1679954528808594, -0.61571168899536133, 1.2717397212982178, 0.5623701810836792, -1.6076089143753052, 1.5785832405090332, 6.1892995834350586, 0.26106369495391846, 0.86575531959533691, };
const TfArray<1, int> tensor_dimension6 = { 1, { 48 } };
const ALIGN(16) float tensor_data7[48] = { 5.4904146194458008, -1.9677834510803223, 3.0647871494293213, 1.265002965927124, 3.5766706466674805, 6.2173447608947754, 0.37128323316574097, 1.0965896844863892, 2.9139666557312012, 1.0723558664321899, 3.8830018043518066, 2.4699769020080566, -1.3696426153182983, -0.82522094249725342, -2.091336727142334, -3.0922610759735107, -0.028255686163902283, 3.8235187530517578, -0.27377578616142273, 1.5271172523498535, -0.81361657381057739, 1.0881204605102539, 5.8101215362548828, 1.2383981943130493, 1.5324720144271851, -0.4177507758140564, 2.537973165512085, 2.1248815059661865, -1.1466809511184692, -4.248201847076416, 0.029851451516151428, -0.24097442626953125, -0.40299797058105469, 4.0787291526794434, -0.15420125424861908, 2.3743908405303955, 2.6952614784240723, 3.2542877197265625, 3.6004304885864258, 4.0699396133422852, 0.58483731746673584, 3.8527185916900635, 1.724213719367981, 4.0170779228210449, 3.2651786804199219, -2.1176812648773193, -1.8621481657028198, 1.2176907062530518, };
const TfArray<1, int> tensor_dimension7 = { 1, { 48 } };
const ALIGN(16) float tensor_data8[48] = { -2.0188455581665039, -1.3375277519226074, -4.9047932624816895, -0.8550642728805542, 5.9034276008605957, -1.4766168594360352, 4.3375978469848633, 2.6890721321105957, 0.43083608150482178, 3.8858530521392822, 4.5792980194091797, 1.3370054960250854, -1.6456760168075562, -0.60089349746704102, 7.4360675811767578, 0.64607810974121094, -1.2455732822418213, 6.6735949516296387, 0.55313444137573242, -0.91533750295639038, 2.5892138481140137, -3.5388200283050537, 7.271601676940918, 0.39358782768249512, -2.215024471282959, 4.8826627731323242, -0.43405020236968994, 3.8513567447662354, 1.1284210681915283, -0.44472724199295044, -1.6712429523468018, -0.12624102830886841, 5.2889232635498047, 0.55645489692687988, -1.2757667303085327, 5.1069917678833008, -2.6302332878112793, -2.214423656463623, -0.67471253871917725, 1.83067786693573, 10.057805061340332, -1.4081709384918213, -3.7085552215576172, 10.754400253295898, 10.347305297851562, -4.4314465522766113, 2.6601660251617432, -1.6061954498291016, };
const TfArray<1, int> tensor_dimension8 = { 1, { 48 } };
const ALIGN(16) float tensor_data9[48] = { -1.0573453903198242, 1.6618292331695557, -0.68680042028427124, -1.8098349571228027, 0.28675049543380737, 5.301300048828125, 1.9799085855484009, 1.7934350967407227, -0.8637157678604126, -0.55391204357147217, 4.1040802001953125, 1.5180668830871582, -0.54341202974319458, 2.5900068283081055, 3.1862008571624756, 2.6401834487915039, 1.8032727241516113, -0.33409976959228516, -0.50532913208007812, -0.40546891093254089, -0.84110724925994873, 3.6112957000732422, 4.2178058624267578, 0.77717548608779907, 2.58370041847229, -0.6972271203994751, 9.9649496078491211, 3.1172075271606445, 4.3242278099060059, 0.69313031435012817, 4.2497982978820801, 2.8496263027191162, 2.8157122135162354, -0.22087296843528748, 2.2573955059051514, 0.82256358861923218, -2.1960482597351074, -0.73738455772399902, 0.71022683382034302, 3.7295727729797363, 2.1459441184997559, 0.61127042770385742, -0.26126819849014282, 1.5139791965484619, 2.199974536895752, 3.4589812755584717, -3.489267110824585, 0.37592911720275879, };
const TfArray<1, int> tensor_dimension9 = { 1, { 48 } };
const ALIGN(16) float tensor_data10[48] = { 1.8175809383392334, 1.9641323089599609, -1.626072883605957, -0.98413097858428955, -2.4159131050109863, 11.410518646240234, -2.3351819515228271, 3.7058520317077637, 2.7637250423431396, 3.3645353317260742, 19.724910736083984, -1.9769488573074341, -0.71919518709182739, -1.0677344799041748, 6.1220178604125977, 0.4337460994720459, 2.8350136280059814, -0.18047714233398438, 1.3986208438873291, -1.3201537132263184, 1.2682962417602539, -3.317035436630249, -3.1991019248962402, 1.6548519134521484, 1.9663165807723999, 2.0479750633239746, -1.5011683702468872, 6.3039045333862305, 2.7052676677703857, 0.94398367404937744, -0.096796274185180664, -3.1997883319854736, -0.16865384578704834, 3.4514751434326172, 4.1477293968200684, -0.72283148765563965, 5.288365364074707, -4.3863539695739746, 0.42908763885498047, -4.7148351669311523, 5.9219450950622559, 5.4833111763000488, -3.0122358798980713, -2.7141668796539307, -0.40396976470947266, -5.0359783172607422, 4.3899388313293457, 2.0942482948303223, };
const TfArray<1, int> tensor_dimension10 = { 1, { 48 } };
const ALIGN(16) float tensor_data11[96] = { 4.123234748840332, 1.8076915740966797, 4.0851869583129883, 0.80723476409912109, 1.4760673046112061, 0.22540438175201416, 3.0408716201782227, 2.2731637954711914, -0.86688858270645142, -1.0016865730285645, 0.56659334897994995, -3.0051088333129883, 3.5323970317840576, 3.9373197555541992, 0.62038052082061768, -2.3134574890136719, -1.3801437616348267, 3.8916177749633789, -0.054752334952354431, -1.7534701824188232, 2.0119693279266357, 3.3025453090667725, 0.71786028146743774, 2.8873863220214844, 3.1462266445159912, 1.2770845890045166, -0.032118789851665497, -4.0814204216003418, -4.6983804702758789, -0.76944434642791748, 1.2078944444656372, 1.7816801071166992, 3.7609984874725342, 4.9053640365600586, 0.77333348989486694, 0.89434391260147095, 4.7944064140319824, 1.5923584699630737, -2.2530858516693115, -1.4410943984985352, 0.80425882339477539, 3.7926955223083496, 0.96407455205917358, 1.8546279668807983, 1.1847611665725708, 1.1357717514038086, 4.5215306282043457, 3.6818301677703857, 2.7484548091888428, -0.32186958193778992, -0.50983405113220215, -1.02925705909729, 3.6466939449310303, 0.58123165369033813, -2.4721457958221436, 4.2854290008544922, -0.94659912586212158, 3.1112840175628662, -0.25488942861557007, 1.0880495309829712, 1.2073614597320557, -0.49809157848358154, 1.7775353193283081, 1.5767347812652588, 1.4674205780029297, 2.3424081802368164, 4.4384746551513672, -1.7411799430847168, 1.1131361722946167, 3.8341236114501953, 3.4775238037109375, -2.0273475646972656, 0.74235588312149048, 0.26564085483551025, 1.5292482376098633, 2.9583187103271484, 2.7116570472717285, 5.2639102935791016, 1.8054720163345337, -3.378901481628418, 0.9548259973526001, -0.6823878288269043, -0.018342101946473122, -1.6513106822967529, 0.79452264308929443, -0.26814180612564087, -0.20431211590766907, -0.48942810297012329, -1.9391142129898071, 0.7043001651763916, -0.095705091953277588, 1.7342208623886108, -2.651961088180542, 4.0453095436096191, -3.1761941909790039, 3.6710894107818604, };
const TfArray<1, int> tensor_dimension11 = { 1, { 96 } };
const ALIGN(16) float tensor_data12[96] = { 7.6935248374938965, -4.1249604225158691, 7.6700725555419922, 2.104750394821167, -0.59215772151947021, -1.1931391954421997, -3.4506728649139404, -0.098858475685119629, -0.43096822500228882, 1.4187605381011963, -0.5336834192276001, -0.75914263725280762, -2.2532806396484375, -7.6991767883300781, 3.0442156791687012, 1.8951122760772705, 1.2347735166549683, 2.6197028160095215, -0.021809160709381104, 0.76267701387405396, -3.8670618534088135, 4.7470521926879883, -0.86773931980133057, 5.0083909034729004, 3.9371778964996338, 2.9515964984893799, -1.2840722799301147, -1.5627210140228271, -0.64127951860427856, -1.4099409580230713, 0.66747552156448364, -0.11388230323791504, 1.1303238868713379, 10.727063179016113, -3.0407052040100098, 5.0608701705932617, 2.7650551795959473, -1.4099719524383545, 1.5203207731246948, 4.4837689399719238, 1.0807579755783081, -2.6482105255126953, -3.8688249588012695, 1.2085487842559814, -0.8007197380065918, 1.0610083341598511, -0.021962761878967285, 5.8174123764038086, 1.3774075508117676, -1.5262784957885742, -0.86339801549911499, 1.7792239189147949, -0.39784875512123108, 0.15830826759338379, -2.4616196155548096, -5.6384177207946777, -2.7205984592437744, -2.0458118915557861, -1.634971022605896, -1.078583836555481, -1.2175014019012451, -2.1873860359191895, -4.9802498817443848, -1.2999776601791382, 4.2784948348999023, 1.3555116653442383, -0.64629745483398438, 2.7108404636383057, -3.6175670623779297, 7.4343175888061523, 1.9163498878479004, -0.51546317338943481, 5.0364594459533691, 5.4266757965087891, -0.2997918426990509, 4.8955159187316895, 6.6218914985656738, 3.4288773536682129, 0.31607317924499512, -1.5194064378738403, -1.7331774234771729, -2.7861757278442383, -1.36149001121521, -0.5898061990737915, -0.2840971052646637, 1.9802161455154419, -0.88053208589553833, 0.50986206531524658, -1.1068153381347656, -1.5516871213912964, -2.0735263824462891, -0.080244064331054688, -0.80391919612884521, -3.4828050136566162, 2.7966117858886719, 5.6313347816467285, };
const TfArray<1, int> tensor_dimension12 = { 1, { 96 } };
const ALIGN(16) float tensor_data13[96] = { 1.4342015981674194, -0.57210451364517212, 3.9083437919616699, 2.0151569843292236, 5.0490937232971191, 1.5778340101242065, -1.2189728021621704, 0.6983831524848938, 3.8265271186828613, -2.6437966823577881, 1.4386376142501831, -0.60824441909790039, 0.74358278512954712, 1.4506006240844727, 3.0544426441192627, 2.048419713973999, -1.9521199464797974, -0.3279401957988739, 2.7537825107574463, 1.5980777740478516, -0.10408163070678711, 2.2044885158538818, 2.066777229309082, -1.5486295223236084, 1.2235512733459473, 0.086839810013771057, 2.7927722930908203, 2.0088770389556885, 4.2959880828857422, 2.4856433868408203, 4.9728198051452637, 3.5982086658477783, 2.2790834903717041, 1.471845269203186, 3.3291199207305908, -0.51277667284011841, 2.0330171585083008, 3.1455504894256592, 2.3280868530273438, 0.18091920018196106, -0.70263797044754028, 0.071937143802642822, 4.9073686599731445, -0.70987433195114136, 5.6011824607849121, 2.0246655941009521, 3.2495005130767822, -3.8656911849975586, 2.8981540203094482, 3.602424144744873, -0.66125196218490601, -1.1468907594680786, -2.1865060329437256, -1.4375288486480713, -2.8120436668395996, -3.1918225288391113, 1.6334010362625122, 3.0116369724273682, 1.1500940322875977, -0.48311096429824829, 6.4362859725952148, 2.4571409225463867, 4.0525040626525879, 0.5589064359664917, 5.0660719871520996, 2.6884140968322754, 0.15657550096511841, -3.0470986366271973, 6.7164983749389648, -1.7617084980010986, 2.3822767734527588, 1.1533830165863037, 2.1412215232849121, -0.51682043075561523, -0.55775701999664307, -3.9940171241760254, 2.8497016429901123, -2.5336408615112305, 1.8029215335845947, -3.4632608890533447, 0.97808903455734253, 3.2371859550476074, 0.69576895236968994, 2.0946197509765625, -0.096990182995796204, 2.709467887878418, -1.7768880128860474, 5.6333446502685547, -0.27156400680541992, 4.2601585388183594, 2.7124731540679932, -1.348833441734314, 0.32629746198654175, 1.0597035884857178, 0.47145956754684448, 3.2169618606567383, };
const TfArray<1, int> tensor_dimension13 = { 1, { 96 } };
const ALIGN(16) float tensor_data14[96] = { 2.0430691242218018, 8.5703248977661133, 6.8930749893188477, -3.193483829498291, 6.2042365074157715, -1.7021110057830811, -0.15469466149806976, -0.54250377416610718, 15.79364013671875, 1.7985398769378662, -2.9695625305175781, -1.4480969905853271, -1.7379813194274902, -0.75992131233215332, 0.90341603755950928, -0.91823935508728027, -2.9995064735412598, -0.67061036825180054, -0.27169495820999146, 0.16667413711547852, 3.8211238384246826, -0.6556847095489502, -0.45764997601509094, -0.90889096260070801, -0.86366367340087891, -0.96264505386352539, -3.380854606628418, 4.3798623085021973, 11.625309944152832, -3.3985457420349121, 22.454069137573242, -0.40424484014511108, 10.363332748413086, -1.7857933044433594, -0.18830963969230652, -2.6730139255523682, -3.3955368995666504, -1.7679057121276855, 5.9563589096069336, -1.2932251691818237, -1.5279508829116821, -2.6949009895324707, -1.1727147102355957, -1.2716183662414551, 11.238813400268555, 5.0647306442260742, 2.4377627372741699, 0.46411776542663574, -4.7549395561218262, -0.49004009366035461, -1.7114822864532471, 7.1363620758056641, -1.2977602481842041, 2.6424884796142578, -1.2501692771911621, 5.3972992897033691, 1.9825057983398438, -2.2975878715515137, -0.6214371919631958, -1.072346568107605, 0.065683603286743164, -0.00076997280120849609, 3.4468791484832764, 0.87505120038986206, -0.29788243770599365, 5.9632430076599121, -1.9243420362472534, -2.3093371391296387, 6.1881165504455566, -1.1538779735565186, -1.1897164583206177, -0.68185520172119141, -1.8653807640075684, 1.3452844619750977, -1.5544315576553345, -1.2640672922134399, -0.11295032501220703, -0.14828887581825256, -0.24718713760375977, 1.0280901193618774, -0.68096941709518433, 7.6783380508422852, 0.61771118640899658, -1.4712687730789185, 3.1214101314544678, 0.53113317489624023, -1.2311599254608154, 4.7457304000854492, -3.5178933143615723, 2.7163612842559814, 4.978856086730957, 1.0851676464080811, -1.2687602043151855, -0.25041389465332031, -2.5007216930389404, -0.68537986278533936, };
const TfArray<1, int> tensor_dimension14 = { 1, { 96 } };
const ALIGN(16) float tensor_data15[96] = { -2.1491336822509766, -0.14365601539611816, -0.10921456664800644, -1.2472691535949707, -2.1767911911010742, -2.4859621524810791, 0.88205349445343018, -0.59509003162384033, -0.76061111688613892, -2.3256807327270508, -0.29311427474021912, -0.9383733868598938, -3.4309229850769043, 1.0726078748703003, 0.80671489238739014, -1.1779187917709351, -1.1599490642547607, -0.048704579472541809, -2.2237749099731445, -2.778231143951416, -0.77656453847885132, 0.67414253950119019, 0.52345019578933716, -1.2406538724899292, -1.1636064052581787, -1.9054797887802124, 1.0695674419403076, -1.230116605758667, -1.0621572732925415, -2.9401226043701172, -0.58123719692230225, -2.2961227893829346, -1.57979416847229, -0.61189162731170654, -1.9349063634872437, -1.4763540029525757, -0.67063063383102417, -1.3385220766067505, -1.2713227272033691, -1.4767196178436279, -1.4633373022079468, -0.24698783457279205, -0.26750722527503967, -0.32474374771118164, 0.066451221704483032, -0.69035893678665161, -1.7274359464645386, -0.094333283603191376, -0.15139470994472504, -2.470879077911377, -2.7920641899108887, -1.8896695375442505, -2.5892529487609863, -1.8762366771697998, -0.75429069995880127, -1.9574992656707764, -0.94142842292785645, -1.2640359401702881, -3.2125740051269531, -0.61114048957824707, -2.5766532421112061, -0.76043778657913208, -1.7265852689743042, -2.2043979167938232, -2.9476828575134277, -0.77122378349304199, -0.32409915328025818, -0.78888356685638428, -2.3349416255950928, -0.67698931694030762, -1.6996004581451416, -1.0225071907043457, -1.0741291046142578, -1.3172656297683716, -0.87860006093978882, 0.13260146975517273, -1.9311670064926147, -0.42216303944587708, -1.2047164440155029, -0.81619375944137573, -0.7164807915687561, -1.3815522193908691, -1.0631741285324097, -0.75458937883377075, -0.33110925555229187, -0.10327982157468796, -0.65892910957336426, -0.66807782649993896, -0.95345860719680786, 0.11459994316101074, -1.8477966785430908, -3.2484645843505859, -1.6629421710968018, -2.5451304912567139, -2.1328778266906738, -2.1170072555541992, };
const TfArray<1, int> tensor_dimension15 = { 1, { 96 } };
const ALIGN(16) float tensor_data16[16*3*3*3] = { 
  /* [0][0][][] */ 4.8747259224958709e-20,3.7147711957476137e-20,2.2560115283226402e-20, 1.8998144703015219e-20,9.99850122558854e-21,2.4239875557561167e-21, 1.4501873620925392e-20,1.3855346346097105e-20,8.9639567732261252e-21, 
  /* [0][1][][] */ 3.8636523968972215e-20,2.4191955223685994e-20,1.3960823183307553e-20, 2.0533141503907886e-20,1.3445754617976975e-20,2.9473941662847144e-21, 2.0706167654773519e-20,1.8024154072018234e-20,1.7330613211593671e-20, 
  /* [0][2][][] */ 3.1181633015346212e-20,1.1348582769897257e-21,-8.6793048605184484e-21, 1.1872147707964976e-20,-1.0257333632515912e-20,-2.2796315737788639e-20, 1.7555312301349726e-20,6.2228341078998947e-21,2.910896437342946e-21, 
  /* [1][0][][] */ 1.1573637723922729,1.0096982717514038,1.0943073034286499, 0.94134253263473511,0.93037766218185425,0.9899408221244812, -1.6206175088882446,0.48786461353302002,-1.8796107769012451, 
  /* [1][1][][] */ 1.0545848608016968,1.027787446975708,1.027587890625, 0.96855670213699341,1.0528246164321899,0.99458044767379761, -0.99174892902374268,0.93741220235824585,0.87914806604385376, 
  /* [1][2][][] */ 1.0559713840484619,1.1122572422027588,1.041223406791687, 1.0639270544052124,1.0830843448638916,1.0352861881256104, -0.7466890811920166,0.99529337882995605,1.0182682275772095, 
  /* [2][0][][] */ 0.59453600645065308,0.66181856393814087,0.80636018514633179, 0.6463431715965271,0.94852238893508911,0.83375394344329834, 0.76000070571899414,0.65529674291610718,0.86528795957565308, 
  /* [2][1][][] */ 0.40630123019218445,0.72103804349899292,0.80577558279037476, 0.62366217374801636,0.97837936878204346,0.7534559965133667, 0.65920621156692505,0.71118426322937012,0.80687856674194336, 
  /* [2][2][][] */ -0.81486821174621582,0.56737029552459717,0.85755199193954468, 0.8681025505065918,0.64845126867294312,0.76461523771286011, 0.73548847436904907,0.60987597703933716,0.83366060256958008, 
  /* [3][0][][] */ 0.081178069114685059,0.56810623407363892,-0.008373909629881382, 0.52807062864303589,0.76945400238037109,0.19038434326648712, 0.48914596438407898,0.55049437284469604,0.41997024416923523, 
  /* [3][1][][] */ -0.43415585160255432,0.010358862578868866,-1.6488054990768433, 0.052160065621137619,0.71870476007461548,-0.8618316650390625, 0.74577087163925171,1.0728164911270142,0.56940001249313354, 
  /* [3][2][][] */ -0.16336430609226227,0.093781247735023499,0.16099414229393005, -0.18133868277072906,0.0022939783520996571,-0.37316882610321045, 0.24603396654129028,0.29764452576637268,-0.0072474870830774307, 
  /* [4][0][][] */ 0.81967997550964355,0.83723688125610352,-0.8853498101234436, 0.08781374990940094,0.87644815444946289,-0.52615898847579956, -0.19938984513282776,1.2651225328445435,-0.34659466147422791, 
  /* [4][1][][] */ 0.041764385998249054,0.83917957544326782,-0.66368204355239868, -0.089454151690006256,1.0658670663833618,-0.51622861623764038, -0.24715450406074524,0.34837004542350769,-0.27669510245323181, 
  /* [4][2][][] */ -0.31029435992240906,1.5892190933227539,-0.56779903173446655, -0.24711281061172485,0.24586351215839386,-0.40353071689605713, -0.25832939147949219,-0.20364925265312195,-0.2613055408000946, 
  /* [5][0][][] */ 0.78739261627197266,0.93579530715942383,1.6262788772583008, 1.3842258453369141,1.1999189853668213,1.3804540634155273, 1.4528510570526123,1.3214478492736816,0.89032554626464844, 
  /* [5][1][][] */ 0.87585759162902832,0.92562401294708252,0.55527579784393311, 1.178834080696106,1.0476711988449097,0.77140563726425171, 1.2229911088943481,1.2278501987457275,0.73845529556274414, 
  /* [5][2][][] */ 0.77604043483734131,1.0240895748138428,1.1210116147994995, 1.094326376914978,1.1626209020614624,0.82601028680801392, 0.89063209295272827,1.115338921546936,0.38152524828910828, 
  /* [6][0][][] */ -0.032590761780738831,-0.06162644550204277,0.029847109690308571, -0.028701167553663254,-0.067309640347957611,-0.047473914921283722, -0.040160201489925385,-0.046861585229635239,-0.043933555483818054, 
  /* [6][1][][] */ -0.036311589181423187,-0.082189209759235382,-0.019012400880455971, -0.029159525409340858,-0.084236189723014832,-0.041671011596918106, -0.042225252836942673,-0.050717949867248535,-0.043476294726133347, 
  /* [6][2][][] */ -0.039297167211771011,-0.060102995485067368,-0.02981463260948658, -0.041336838155984879,-0.059963230043649673,-0.051161091774702072, -0.047108247876167297,-0.040798451751470566,-0.047416292130947113, 
  /* [7][0][][] */ -0.044638399034738541,0.44011309742927551,0.10337726771831512, 0.78871721029281616,0.57541173696517944,0.52507191896438599, 1.5297378301620483,0.61372733116149902,1.3840044736862183, 
  /* [7][1][][] */ 0.26882502436637878,0.49021291732788086,0.29417517781257629, 1.3224018812179565,0.453666090965271,0.50692290067672729, 1.7039024829864502,0.62538158893585205,1.3144152164459229, 
  /* [7][2][][] */ 0.034914083778858185,0.61234253644943237,0.10448282212018967, 0.21254643797874451,0.6835169792175293,0.11226445436477661, 1.2882651090621948,0.74759852886199951,0.88117814064025879, 
  /* [8][0][][] */ -0.081384904682636261,0.083141714334487915,-0.083229653537273407, -0.082298934459686279,0.083121664822101593,-0.083242878317832947, -0.082604572176933289,0.083165794610977173,-0.083217300474643707, 
  /* [8][1][][] */ -0.081405982375144958,0.083144180476665497,-0.083224408328533173, -0.082083620131015778,0.083137594163417816,-0.083231493830680847, -0.082337066531181335,0.083183042705059052,-0.083199791610240936, 
  /* [8][2][][] */ -0.081933744251728058,0.083159975707530975,-0.083198577165603638, -0.082060329616069794,0.083154238760471344,-0.083203338086605072, -0.082162030041217804,0.08320886641740799,-0.083169184625148773, 
  /* [9][0][][] */ 0.084532909095287323,0.10325174778699875,0.097483173012733459, 0.1010059118270874,0.14297237992286682,0.10184409469366074, 0.11352479457855225,0.16414754092693329,0.097503602504730225, 
  /* [9][1][][] */ 0.10207570344209671,0.16658972203731537,0.093289971351623535, -0.06187901645898819,0.080499537289142609,0.12005089223384857, -0.095068126916885376,0.021320180967450142,0.11145135015249252, 
  /* [9][2][][] */ 0.010803288780152798,0.022175624966621399,0.076252706348896027, -0.014651931822299957,-0.041563626378774643,0.071122564375400543, 0.054234117269515991,0.07340656965970993,0.067579738795757294, 
  /* [10][0][][] */ -0.0068479576148092747,-0.0097541967406868935,-0.0067062885500490665, -0.0028718910180032253,0.0021415005903691053,-0.0040211146697402, -0.0059902193024754524,-0.005969067569822073,-0.005588483065366745, 
  /* [10][1][][] */ -0.009398280642926693,-0.011364750564098358,-0.0064055570401251316, 0.00012999260798096657,0.0043550897389650345,-0.0044291955418884754, -0.0066014211624860764,-0.0070098233409225941,-0.0054752761498093605, 
  /* [10][2][][] */ -0.0075463978573679924,-0.0058377985842525959,-0.005329434759914875, -0.0028787925839424133,-0.002823342802003026,-0.0062378584407269955, -0.0060426811687648296,-0.0052583762444555759,-0.0049767582677304745, 
  /* [11][0][][] */ 0.056675359606742859,0.11152266710996628,0.0097952326759696007, 0.076190836727619171,0.11856833100318909,0.022632155567407608, 0.10255191475152969,0.11237067729234695,0.050428919494152069, 
  /* [11][1][][] */ 0.051562473177909851,0.097728975117206573,0.0095459632575511932, 0.074617780745029449,0.11334746330976486,0.021919190883636475, 0.10395734012126923,0.12175344675779343,0.054112818092107773, 
  /* [11][2][][] */ 0.11229002475738525,0.11210405081510544,0.089876823127269745, 0.13738259673118591,0.1440579742193222,0.11776111274957657, 0.11196639388799667,0.12619538605213165,0.099829979240894318, 
  /* [12][0][][] */ -4.1760652664440021e-20,-2.2020060047283041e-20,2.0486425186344246e-20, -3.4100860025796683e-20,-3.0316880308407377e-20,4.7328015203241615e-21, -1.0191137373085362e-20,-2.9338067149815722e-20,9.6326757529255618e-21, 
  /* [12][1][][] */ -2.2377321292549254e-20,-1.1137344752140795e-20,3.4168016751778332e-20, -1.2131639274442976e-20,-2.0993629073507035e-20,2.5905320922096076e-20, -4.2247672213745522e-21,-3.2822045261138238e-20,-1.3655811641538561e-20, 
  /* [12][2][][] */ -1.6506967705637993e-21,-8.1535572642328403e-21,3.8140793981634332e-20, -2.6905146406951138e-20,-2.2071049592815826e-20,1.8881210121851205e-20, -1.7634703868696344e-20,-5.1463665426620299e-20,-3.0031254196657963e-20, 
  /* [13][0][][] */ 0.08447980135679245,-0.022399578243494034,0.15914462506771088, 0.061290815472602844,-0.053063575178384781,0.14258037507534027, 0.18003545701503754,0.15973381698131561,0.18723925948143005, 
  /* [13][1][][] */ 0.34010210633277893,0.45749840140342712,0.23382861912250519, 0.33151966333389282,0.48697686195373535,0.25551038980484009, 0.21840555965900421,0.23559820652008057,0.22479452192783356, 
  /* [13][2][][] */ 0.18058846890926361,0.15384598076343536,0.20501105487346649, 0.20238994061946869,0.15610218048095703,0.19467379152774811, 0.20143963396549225,0.20824532210826874,0.19040314853191376, 
  /* [14][0][][] */ 0.17475967109203339,-0.48691087961196899,0.52155828475952148, -0.50958651304244995,-0.93558049201965332,0.15855342149734497, -0.48486045002937317,-0.62040358781814575,-0.24249663949012756, 
  /* [14][1][][] */ 0.074409738183021545,-0.27657449245452881,0.60312128067016602, -0.63373208045959473,-1.0611298084259033,0.47443485260009766, -0.58453559875488281,-0.96505260467529297,-0.095724090933799744, 
  /* [14][2][][] */ 0.41493549942970276,0.85194647312164307,0.77942657470703125, -0.32285311818122864,-0.59946846961975098,1.4966607093811035, -0.38132831454277039,-0.68174046277999878,0.048788569867610931, 
  /* [15][0][][] */ -5.564143093696401e-19,-5.4188731175319554e-19,-4.8537009300293336e-19, -5.2335918981504371e-19,-4.9507674729851343e-19,-4.302563154088381e-19, -4.8131256530320762e-19,-4.9221888998093101e-19,-4.4264156147362387e-19, 
  /* [15][1][][] */ -2.4383692135384091e-19,-2.1926717561917833e-19,-1.6843370872822407e-19, -2.7075355943207543e-19,-2.6370768667313702e-19,-2.2145082903874176e-19, -2.0087568065376553e-19,-1.8880159667096748e-19,-1.7710207040929109e-19, 
  /* [15][2][][] */ -9.6040703286915722e-20,-1.3223456613819311e-19,-1.1152797358400338e-19, -1.5032742305308013e-19,-1.5665035288134426e-19,-1.4964530924045359e-19, -1.8440829826603056e-19,-1.6591260439283022e-19,-1.37512262789617e-19, 
};
const TfArray<4, int> tensor_dimension16 = { 4, { 16,3,3,3 } };
const ALIGN(16) float tensor_data17[8*1*1*16] = { 
  /* [0][0][][] */ -6.5908185098447328e-22,0.55336898565292358,-0.053352270275354385,1.0393832921981812,5.7003793716430664,-0.95226657390594482,-0.23896728456020355,-0.6671488881111145,0.88201212882995605,-1.2436679601669312,-1.085956335067749,0.77045989036560059,5.9448790058105947e-22,-0.17721319198608398,0.92770713567733765,1.1963234914470626e-21, 
  /* [1][0][][] */ 8.1725964537347856e-22,0.81470906734466553,-1.775389552116394,1.1185840368270874,1.9916948080062866,2.5878443717956543,0.057357367128133774,1.5155653953552246,1.168243408203125,-1.3332017660140991,-0.11504679173231125,-0.75547456741333008,1.7441303144588408e-21,-1.6316938400268555,-3.2884111404418945,-1.1467130514814464e-20, 
  /* [2][0][][] */ 3.6191292452147369e-22,-1.7156062126159668,-1.4306168556213379,-0.98832958936691284,2.5284218788146973,0.096588209271430969,-2.0295438766479492,-0.82512485980987549,-1.3897953033447266,2.0643880367279053,2.0058455467224121,0.12405861914157867,9.5734230850480908e-22,3.5143320560455322,-2.0546226501464844,-3.8787437477762063e-22, 
  /* [3][0][][] */ -1.1954924738150666e-21,1.1607774496078491,0.27416449785232544,0.79863256216049194,3.969214916229248,-2.0810225009918213,1.8424125909805298,-0.19542211294174194,1.2538694143295288,-1.3239432573318481,-0.9052310585975647,1.7505114078521729,-8.9863298277530538e-22,-0.45753759145736694,0.39398258924484253,-3.5399998068805931e-21, 
  /* [4][0][][] */ -3.3924890653826332e-23,-0.37780246138572693,-0.52330225706100464,0.56734305620193481,0.40013349056243896,0.95243346691131592,0.73556756973266602,0.76925963163375854,-0.55867207050323486,0.24349573254585266,-0.51986479759216309,0.98279136419296265,-7.6497737769808942e-22,-0.44097337126731873,0.74741554260253906,1.5463548833149106e-21, 
  /* [5][0][][] */ -2.6414021650738416e-22,0.32542389631271362,-0.37325659394264221,0.45013880729675293,0.47850430011749268,-0.38008341193199158,-0.054820403456687927,-0.43417379260063171,-0.43663349747657776,0.29705443978309631,-0.48034077882766724,0.098482720553874969,-8.5289015743403221e-22,-0.63459819555282593,0.94681870937347412,-4.6946627587511416e-21, 
  /* [6][0][][] */ -1.2393644492552921e-21,-1.5467833280563354,0.7677619457244873,1.5113520622253418,-4.2867608070373535,3.7339630126953125,1.3085675239562988,3.9614582061767578,1.8593263626098633,-1.6958262920379639,-0.45992004871368408,2.3040783405303955,7.8303116002255611e-22,-3.3916983604431152,0.88155508041381836,5.0365197845924722e-21, 
  /* [7][0][][] */ 5.2671467664653669e-22,0.93701869249343872,1.4507062435150146,1.9837626218795776,1.6800507307052612,-0.42124423384666443,0.62463492155075073,1.4191462993621826,1.0476956367492676,0.055066630244255066,0.033896036446094513,2.2681236267089844,3.8445798859106396e-22,-0.15238690376281738,1.8461960554122925,-3.7570026434275671e-21, 
};
const TfArray<4, int> tensor_dimension17 = { 4, { 8,1,1,16 } };
const ALIGN(16) float tensor_data18[48*1*1*8] = { 
  /* [0][0][][] */ 0.019992094486951828,0.061146602034568787,0.038956638425588608,-0.074046976864337921,0.018855661153793335,0.076731786131858826,-0.074803121387958527,-0.098071493208408356, 
  /* [1][0][][] */ 0.10742806643247604,0.062426716089248657,-0.00030193146085366607,0.040257818996906281,-0.058527186512947083,-0.057017810642719269,0.048801273107528687,0.081130102276802063, 
  /* [2][0][][] */ -0.096944041550159454,-0.076231442391872406,-0.050440788269042969,-0.14260967075824738,0.036680012941360474,-0.036781806498765945,0.049911532551050186,-0.010134649462997913, 
  /* [3][0][][] */ 0.078183926641941071,-0.0084167635068297386,-0.049549508839845657,0.088182859122753143,0.041989617049694061,-0.053564734756946564,0.067066118121147156,0.062334727495908737, 
  /* [4][0][][] */ -0.0054775858297944069,-0.0048505007289350033,-0.0010348192881792784,0.0033634866122156382,0.0038103130646049976,-0.0049777701497077942,0.0028750607743859291,0.0017031126189976931, 
  /* [5][0][][] */ 0.10191871225833893,-0.022949432954192162,-0.026319568976759911,0.075252324342727661,0.016929412260651588,0.032460812479257584,-0.067623160779476166,0.044582709670066833, 
  /* [6][0][][] */ -0.013629263266921043,-0.018690330907702446,-0.0012683522654697299,-0.00037623196840286255,-0.0124129643663764,0.010154888965189457,-0.0070487027987837791,-0.01104272622615099, 
  /* [7][0][][] */ 0.071670889854431152,-0.048771344125270844,0.065363354980945587,0.059420127421617508,0.055419094860553741,0.074096575379371643,-0.035437285900115967,0.050768811255693436, 
  /* [8][0][][] */ 0.026564057916402817,-0.0088202971965074539,-0.048262596130371094,0.043560903519392014,-0.032384064048528671,0.010640360414981842,0.019685674458742142,0.023010212928056717, 
  /* [9][0][][] */ 0.30477926135063171,0.079005792737007141,0.39012068510055542,0.37479910254478455,-0.36799395084381104,0.48086398839950562,-0.37707817554473877,-0.071835815906524658, 
  /* [10][0][][] */ 0.04094097763299942,-0.092145353555679321,0.062960371375083923,0.078545473515987396,0.01615443266928196,0.083056852221488953,-0.057133607566356659,-0.0044203028082847595, 
  /* [11][0][][] */ 0.33161157369613647,0.36250904202461243,0.074075743556022644,-0.19290928542613983,-0.13630053400993347,0.05417000874876976,0.22653336822986603,0.079288467764854431, 
  /* [12][0][][] */ 0.066735893487930298,-0.067293614149093628,-0.00055240420624613762,0.082085557281970978,0.035707131028175354,-0.021802585572004318,0.042526062577962875,0.068412885069847107, 
  /* [13][0][][] */ -8.1376205068989481e-22,-1.1875322336683075e-20,-1.5763542159331835e-20,-1.8739778392975976e-20,2.1348846601048874e-20,-1.8020161956210386e-20,1.7291028095639034e-20,6.2774146997345399e-21, 
  /* [14][0][][] */ -0.080353148281574249,0.051319949328899384,-0.02424541674554348,-0.021291006356477737,-0.040088839828968048,0.040813077241182327,0.091043584048748016,-0.047623995691537857, 
  /* [15][0][][] */ -0.0087709780782461166,0.0074083637446165085,0.0079994527623057365,-0.0048917797394096851,-0.011702625080943108,-0.00828505028039217,-0.0066247298382222652,-0.0096789337694644928, 
  /* [16][0][][] */ -1.522471456766184e-21,-1.2470005420384748e-20,-9.9349206017277624e-21,-1.6505102712240305e-21,1.5713706143012649e-20,-2.4986746545378742e-20,-1.2491979020992822e-20,-1.450118376521922e-20, 
  /* [17][0][][] */ -0.27091133594512939,-0.089974291622638702,0.28735744953155518,-0.30281442403793335,0.13597926497459412,-0.236315056681633,0.31045770645141602,-0.57269483804702759, 
  /* [18][0][][] */ 0.044966559857130051,-0.17451643943786621,-0.20703449845314026,0.10833511501550674,-0.099487833678722382,0.032970946282148361,0.099820464849472046,0.14129333198070526, 
  /* [19][0][][] */ 0.030443722382187843,-0.072713658213615417,-0.024721352383494377,-0.012362896464765072,-0.018739424645900726,0.025301743298768997,-0.019246418029069901,0.014259349554777145, 
  /* [20][0][][] */ 0.054023001343011856,-0.064766444265842438,0.026476478204131126,0.11366258561611176,0.069441355764865875,0.041093584150075912,0.090439721941947937,0.031521357595920563, 
  /* [21][0][][] */ -0.38071995973587036,-0.43336194753646851,-0.25346037745475769,0.49327391386032104,0.44937640428543091,-0.4967995285987854,0.60320544242858887,0.49591606855392456, 
  /* [22][0][][] */ -0.0075039844959974289,-0.056964609771966934,0.026622628793120384,-0.036989167332649231,0.021565694361925125,0.012716249562799931,-0.06196257472038269,0.030783616006374359, 
  /* [23][0][][] */ 0.12047403305768967,0.45343077182769775,-0.32165232300758362,-0.037321072071790695,-0.25519189238548279,-0.14355967938899994,0.48942944407463074,-0.23083074390888214, 
  /* [24][0][][] */ 0.22164477407932281,0.018584595993161201,0.22110112011432648,-0.061715699732303619,0.10865647345781326,-0.11312781274318695,-0.15979330241680145,0.18096268177032471, 
  /* [25][0][][] */ -0.15814295411109924,0.1079777404665947,-0.25662946701049805,0.28468465805053711,-0.061407927423715591,0.14396724104881287,-0.45789286494255066,-0.085489273071289062, 
  /* [26][0][][] */ 0.28653961420059204,0.21215058863162994,-0.22269025444984436,0.31775066256523132,0.2653028666973114,0.17411348223686218,-0.18955099582672119,-0.041585288941860199, 
  /* [27][0][][] */ 0.3553105890750885,0.16440935432910919,0.23819980025291443,0.022503415122628212,-0.1578652411699295,0.10353811830282211,0.0099141132086515427,0.14644242823123932, 
  /* [28][0][][] */ -0.039240624755620956,-0.043798826634883881,-0.0442630834877491,-0.037126205861568451,-0.038972489535808563,-0.024965465068817139,0.045430008322000504,0.046424657106399536, 
  /* [29][0][][] */ -0.077044889330863953,0.11100219190120697,0.13667748868465424,-0.096655562520027161,-0.097053699195384979,0.095142923295497894,-0.069560587406158447,-0.098954029381275177, 
  /* [30][0][][] */ -0.017934579402208328,-0.01544323842972517,-0.0089877331629395485,-0.0071071432903409004,-0.010476510971784592,-0.01284284982830286,0.014251205138862133,0.007379880640655756, 
  /* [31][0][][] */ 0.052913744002580643,-0.037507358938455582,0.0030646850354969501,-0.033423632383346558,0.023179236799478531,0.039303407073020935,-0.047624308615922928,-0.0013580196537077427, 
  /* [32][0][][] */ -0.042408186942338943,-0.2123342901468277,0.094888009130954742,0.023552611470222473,-0.31665685772895813,-0.017238209024071693,-0.24073360860347748,-0.11002656072378159, 
  /* [33][0][][] */ -0.44502460956573486,1.8393800258636475,-0.27134853601455688,-0.28142938017845154,-1.4807425737380981,-1.3150980472564697,-1.5066957473754883,-0.027684906497597694, 
  /* [34][0][][] */ 0.014670687727630138,0.040013600140810013,-0.061789408326148987,0.024351608008146286,0.04142327606678009,-0.032738596200942993,-0.060578092932701111,0.027025578543543816, 
  /* [35][0][][] */ 0.066656053066253662,0.012589976191520691,0.046015579253435135,0.070195019245147705,0.047525934875011444,0.059930652379989624,-0.030128208920359612,-0.03526037186384201, 
  /* [36][0][][] */ 0.13880373537540436,-0.044445954263210297,-0.40289825201034546,0.35032325983047485,0.35134941339492798,-0.30643218755722046,0.4486161470413208,0.40994694828987122, 
  /* [37][0][][] */ -0.021377259865403175,0.043571524322032928,0.060862571001052856,-0.057404831051826477,0.026823448017239571,0.037991676479578018,0.019781090319156647,-0.055481791496276855, 
  /* [38][0][][] */ 0.17644992470741272,0.13279789686203003,0.14110283553600311,0.065722696483135223,-0.04129168763756752,0.05219775065779686,-0.086109794676303864,0.1003587543964386, 
  /* [39][0][][] */ -0.017098557204008102,0.042024608701467514,0.015329642221331596,-0.017112644389271736,-0.03693915531039238,0.023752959445118904,-0.029817206785082817,-0.051699098199605942, 
  /* [40][0][][] */ 0.095948390662670135,0.091237358748912811,0.114864282310009,0.064093805849552155,0.038217891007661819,0.049314938485622406,-0.067351184785366058,-0.10634510964155197, 
  /* [41][0][][] */ 0.021857907995581627,-0.097706839442253113,-0.13757459819316864,-0.050808865576982498,0.11856706440448761,0.014578926376998425,0.13418987393379211,0.16687338054180145, 
  /* [42][0][][] */ 0.11995473504066467,-0.074827812612056732,0.11693846434354782,0.046434089541435242,0.060135617852210999,0.078971065580844879,-0.078335963189601898,-0.021270792931318283, 
  /* [43][0][][] */ 0.9452856183052063,-0.77390885353088379,-1.4896332025527954,1.5070524215698242,-1.1681963205337524,-1.0393053293228149,1.0306607484817505,0.46780014038085938, 
  /* [44][0][][] */ -0.018836962059140205,0.023331863805651665,-0.036863822489976883,-0.0010439149336889386,0.046000182628631592,0.021938169375061989,0.047288309782743454,0.0023155261296778917, 
  /* [45][0][][] */ -0.0217719916254282,0.095508202910423279,0.014623711816966534,-0.048540838062763214,-0.056927397847175598,-0.057634428143501282,0.034139771014451981,0.026689989492297173, 
  /* [46][0][][] */ 0.021207887679338455,-0.011419210582971573,-0.059536967426538467,0.04521729052066803,0.041395623236894608,0.041077163070440292,-0.060959696769714355,0.023065032437443733, 
  /* [47][0][][] */ 0.017176711931824684,-0.019196502864360809,-0.012698923237621784,0.032335244119167328,-0.011569825932383537,-0.021791476756334305,0.027752287685871124,0.024217169731855392, 
};
const TfArray<4, int> tensor_dimension18 = { 4, { 48,1,1,8 } };
const ALIGN(16) float tensor_data19[8*1*1*48] = { 
  /* [0][0][][] */ 0.38916182518005371,0.24711276590824127,0.16141240298748016,0.37994673848152161,-0.3524671196937561,1.3385251760482788,0.43056696653366089,0.52341395616531372,-0.43461886048316956,0.58912652730941772,0.053148232400417328,-0.46084749698638916,1.2464579343795776,6.7067490036050333e-23,-0.55367803573608398,0.61337441205978394,-2.2821985801759059e-22,0.39625316858291626,0.67667347192764282,-0.06312115490436554,1.1326450109481812,0.74615007638931274,0.25366050004959106,0.69978350400924683,1.2377347946166992,1.0009516477584839,0.89898818731307983,0.45184093713760376,-1.0060415267944336,-0.7997785210609436,-1.9827266931533813,0.029716534540057182,1.392038106918335,0.74991840124130249,-0.31027993559837341,0.91703033447265625,1.1737028360366821,-0.8169703483581543,-1.1009305715560913,-0.09597884863615036,0.73933935165405273,0.28364908695220947,-0.23946867883205414,0.71617388725280762,-0.61726856231689453,0.84574335813522339,-0.03517509251832962,0.16223964095115662, 
  /* [1][0][][] */ -0.54738682508468628,0.22363057732582092,1.2896081209182739,-0.73812788724899292,-1.3185739517211914,1.7913650274276733,0.20245490968227386,0.89545327425003052,0.94562435150146484,0.58661383390426636,-0.7255210280418396,0.61918735504150391,-0.5786629319190979,5.6767724471588572e-23,-0.3918481171131134,-1.3559558391571045,2.5085191451236501e-23,-0.45245188474655151,-0.59276354312896729,-0.93823003768920898,-0.10515017807483673,-0.62941849231719971,0.41269087791442871,-0.017388856038451195,0.0008679616148583591,0.43101018667221069,1.1147687435150146,-0.68423700332641602,0.17787261307239532,0.66523933410644531,-0.87252956628799438,-0.90325754880905151,0.12576848268508911,0.64004814624786377,-0.1362108588218689,-1.1479359865188599,1.2888637781143188,-1.2643066644668579,-0.88170039653778076,-0.94615656137466431,-0.33315211534500122,-0.63789403438568115,-0.60665035247802734,-0.75709259510040283,-0.46343672275543213,-0.79803323745727539,0.70534390211105347,-0.042262058705091476, 
  /* [2][0][][] */ 0.62333714962005615,-0.97188103199005127,1.6348979473114014,-0.10540445148944855,0.33308568596839905,0.82027119398117065,-0.21388128399848938,-0.41245684027671814,-0.57364034652709961,0.42143988609313965,0.83116883039474487,1.8092128038406372,0.95069253444671631,-2.3219357127824229e-22,-0.61632400751113892,-0.21948729455471039,2.4103136301516329e-22,-2.7486193180084229,-1.0897389650344849,0.81223297119140625,0.65100765228271484,-0.75156116485595703,1.2864558696746826,0.55398958921432495,1.0102697610855103,1.0694848299026489,1.0926907062530518,-0.74418777227401733,1.1310806274414062,-0.80779176950454712,-1.0925250053405762,1.0296401977539062,-1.4471697807312012,-0.51582866907119751,-0.65671658515930176,-0.15582092106342316,-0.66408282518386841,-0.67449986934661865,0.06039707362651825,0.88039976358413696,-0.71115601062774658,-1.8862568140029907,-0.16858004033565521,0.73767495155334473,0.17933809757232666,-0.011159436777234077,-0.067995354533195496,0.83942186832427979, 
  /* [3][0][][] */ -0.32183405756950378,-0.64235424995422363,-0.26488730311393738,-0.19927418231964111,-0.98788297176361084,1.1346033811569214,0.85868227481842041,-0.77132898569107056,0.75989294052124023,-0.36729377508163452,-0.98765808343887329,0.54245442152023315,0.71700584888458252,1.638870016411432e-22,0.82469594478607178,-0.040410012006759644,8.1928727033538623e-23,0.36326828598976135,0.60625529289245605,-0.47932583093643188,0.25006973743438721,-0.41319024562835693,-0.41490939259529114,-0.27799376845359802,0.63392311334609985,0.46433365345001221,-0.12873697280883789,-0.45481193065643311,-0.43811112642288208,0.092394553124904633,0.51864194869995117,0.40767502784729004,0.29901742935180664,0.84974586963653564,-0.054268538951873779,0.53809499740600586,-0.29416665434837341,-0.64508438110351562,-0.84138357639312744,-0.27713662385940552,0.94836890697479248,0.67413246631622314,0.68237274885177612,-0.32528862357139587,0.25446483492851257,0.87476587295532227,0.57076215744018555,0.6302606463432312, 
  /* [4][0][][] */ -0.72015553712844849,0.98975986242294312,1.0235460996627808,0.38417887687683105,-0.94564276933670044,-1.1815567016601562,-0.10959947854280472,-0.15364274382591248,0.45126107335090637,-0.50170499086380005,-0.064958781003952026,0.38686779141426086,-1.1832671165466309,-5.1905867427628366e-23,1.1084572076797485,-0.68061232566833496,-1.2099715171703062e-22,-0.70987439155578613,-0.75382757186889648,0.56459242105484009,-0.39383146166801453,-0.65657299757003784,-0.68388789892196655,-0.45562747120857239,-0.98057365417480469,-0.81420797109603882,-0.56790554523468018,1.1554981470108032,-0.080393970012664795,-0.018598698079586029,-2.3092703819274902,-0.43608939647674561,-0.19696293771266937,-0.74756520986557007,0.46455413103103638,0.2910785973072052,-0.43999940156936646,0.51683753728866577,0.86397022008895874,-0.46469864249229431,0.99080842733383179,-1.3592184782028198,0.61479645967483521,-0.62385201454162598,0.65708708763122559,-0.38803079724311829,-1.2190912961959839,-0.060696333646774292, 
  /* [5][0][][] */ -0.55568188428878784,-0.4855339527130127,-0.39196774363517761,0.41210758686065674,-0.26505094766616821,0.90627509355545044,0.6114155650138855,0.0030239431653171778,-0.34127858281135559,0.24839417636394501,-0.021137898787856102,0.45000618696212769,0.65790081024169922,-4.9536369082059634e-23,1.2575670480728149,0.29742246866226196,-1.5819706783864164e-22,0.019254459068179131,0.38892444968223572,-0.13953347504138947,0.40808632969856262,-0.46927070617675781,-0.11000775545835495,0.51822072267532349,0.67471110820770264,0.19434486329555511,0.60017776489257812,-0.5760490894317627,0.13539840281009674,-0.56053256988525391,0.51478630304336548,0.4656350314617157,0.93822216987609863,0.3686821460723877,0.34107550978660583,0.45517814159393311,0.10597417503595352,-0.43498381972312927,-0.93056082725524902,0.60471194982528687,1.3984140157699585,0.3778151273727417,0.77574515342712402,0.53285127878189087,0.64590996503829956,-0.48007845878601074,-0.38820353150367737,0.61574709415435791, 
  /* [6][0][][] */ -0.39381152391433716,-0.73989099264144897,-0.24217876791954041,-0.3654017448425293,-0.22470156848430634,0.35836440324783325,0.18934959173202515,0.36287590861320496,-0.67463803291320801,0.14673024415969849,0.042323123663663864,0.59110277891159058,0.38101622462272644,-1.4957227170157393e-23,0.25662970542907715,0.24752119183540344,-5.0054565499812075e-23,0.38681706786155701,0.39105963706970215,-0.43990746140480042,0.34095174074172974,0.40270158648490906,0.43483677506446838,0.23660965263843536,0.47320771217346191,0.47252786159515381,0.36749690771102905,-0.31009364128112793,0.15729211270809174,-0.71041357517242432,0.74249303340911865,0.41073089838027954,0.60779595375061035,0.36585888266563416,-0.35997185111045837,0.36683139204978943,0.18957553803920746,-0.39302107691764832,-0.49858319759368896,0.33700102567672729,-0.4750220775604248,0.31910297274589539,0.53252702951431274,0.31609132885932922,-0.3019406795501709,-0.50584715604782104,-0.60645312070846558,0.28627145290374756, 
  /* [7][0][][] */ -0.58078169822692871,-0.41036617755889893,-0.39668747782707214,0.35616645216941833,0.6844978928565979,0.35475993156433105,0.22921198606491089,0.42122760415077209,-0.37649685144424438,0.34065705537796021,-0.078461840748786926,0.24814207851886749,0.28117191791534424,-3.7782253241845173e-23,0.4335910975933075,0.53208738565444946,-4.2226342172174815e-23,0.35965648293495178,0.29736113548278809,-0.11452019959688187,0.31337475776672363,0.33602538704872131,0.31577476859092712,-0.35807761549949646,0.29563874006271362,0.26171061396598816,0.39877969026565552,0.31247639656066895,-0.065613217651844025,0.4364621639251709,0.5512319803237915,0.32767373323440552,-0.51624405384063721,0.26925122737884521,0.32028934359550476,0.28531482815742493,-0.85292458534240723,-0.27926909923553467,-0.23574748635292053,0.49472358822822571,-0.3404439389705658,0.3541487455368042,-0.48042774200439453,0.31958103179931641,-0.16686704754829407,-0.39871492981910706,-0.29949352145195007,0.3509601354598999, 
};
const TfArray<4, int> tensor_dimension19 = { 4, { 8,1,1,48 } };
const ALIGN(16) float tensor_data20[48*1*1*8] = { 
  /* [0][0][][] */ -4.0846483898349106e-05,-6.1784863646607846e-05,-4.7981397074181587e-05,-4.5548131311079487e-05,3.14616336254403e-05,-5.0019309128401801e-05,5.601047450909391e-05,5.6188400776591152e-05, 
  /* [1][0][][] */ 0.077161550521850586,-0.11779671907424927,0.047977667301893234,0.011929049156606197,-0.008832334540784359,0.0097241224721074104,-0.075689703226089478,0.094867266714572906, 
  /* [2][0][][] */ -0.029926734045147896,-0.01888827420771122,0.1540764719247818,0.052134051918983459,0.060255773365497589,0.075222373008728027,-0.03642735630273819,0.058665655553340912, 
  /* [3][0][][] */ -0.062974646687507629,0.015754584223031998,-0.14798356592655182,-0.095371648669242859,-0.10104265809059143,-0.095260627567768097,-0.08527953177690506,0.085555374622344971, 
  /* [4][0][][] */ 0.2041984349489212,-0.14943511784076691,0.35293653607368469,-0.24856428802013397,-0.20866262912750244,-0.18043695390224457,-0.14919745922088623,0.19705937802791595, 
  /* [5][0][][] */ 0.014367126859724522,0.01582757942378521,-0.019753081724047661,0.013603541068732738,0.011163610965013504,-0.0043740784749388695,0.014404959976673126,-0.01611730083823204, 
  /* [6][0][][] */ -0.10533198714256287,-0.093754589557647705,-0.34820172190666199,-0.03303123265504837,-0.05639929324388504,-0.28561282157897949,-0.31096780300140381,-0.045215513557195663, 
  /* [7][0][][] */ 0.18451535701751709,-0.10178477317094803,0.20410460233688354,0.20794986188411713,-0.17231088876724243,0.19904452562332153,-0.00049283989937976003,0.028205262497067451, 
  /* [8][0][][] */ -0.029227616265416145,0.012951977550983429,0.001785233267582953,-0.0096004949882626534,-0.012192267924547195,0.0098629146814346313,-0.026206411421298981,-0.020578809082508087, 
  /* [9][0][][] */ -0.19739975035190582,0.1231350302696228,-0.21184644103050232,0.19555047154426575,-0.13608689606189728,-0.11552152037620544,-0.17912524938583374,-0.1518145352602005, 
  /* [10][0][][] */ -0.017764115706086159,-0.016734430566430092,0.081899918615818024,0.043512821197509766,-0.049793098121881485,0.017527205869555473,-0.03315228596329689,0.032863687723875046, 
  /* [11][0][][] */ 0.076868914067745209,-0.046007614582777023,0.0081884199753403664,-0.013195241801440716,0.035548113286495209,0.061690092086791992,0.057117369025945663,0.049447927623987198, 
  /* [12][0][][] */ 0.14490623772144318,-0.017698369920253754,-0.030662719160318375,0.042756970971822739,-0.024397898465394974,0.12713240087032318,-0.03205905482172966,-0.03056863509118557, 
  /* [13][0][][] */ -0.066702641546726227,0.076760590076446533,-0.08037615567445755,-0.07088567316532135,0.059227816760540009,-0.047888863831758499,0.056786723434925079,0.078428573906421661, 
  /* [14][0][][] */ -0.060198899358510971,-0.077501118183135986,0.045310061424970627,0.023577924817800522,-0.14292174577713013,0.086322925984859467,0.028769101947546005,0.11589274555444717, 
  /* [15][0][][] */ 0.2440163791179657,-0.041996724903583527,0.13074053823947906,0.12872029840946198,-0.2439633309841156,0.18328478932380676,-0.0095284143462777138,-0.19440968334674835, 
  /* [16][0][][] */ -0.11995989829301834,-0.23301921784877777,0.17865870893001556,0.16206352412700653,-0.1598120778799057,-0.066058754920959473,-0.11023517698049545,0.19617591798305511, 
  /* [17][0][][] */ -0.037001397460699081,0.065055347979068756,0.003893173998221755,0.083114460110664368,0.047933965921401978,0.073989979922771454,0.01177480723708868,-0.066190578043460846, 
  /* [18][0][][] */ 0.081863239407539368,0.22351782023906708,-0.0065849958918988705,-0.27424508333206177,0.11832298338413239,-0.11957800388336182,-0.32877933979034424,-0.048261512070894241, 
  /* [19][0][][] */ 0.054913658648729324,0.067129753530025482,-0.026420464739203453,-0.0016816017450764775,-0.078066460788249969,0.04464152455329895,0.058718070387840271,-0.056296788156032562, 
  /* [20][0][][] */ -0.0039268988184630871,0.011321132071316242,-0.061305608600378036,0.052653521299362183,-0.065775364637374878,0.10787774622440338,0.033537592738866806,-0.025323817506432533, 
  /* [21][0][][] */ -0.0099852746352553368,-0.042650289833545685,0.047778535634279251,0.016185898333787918,0.093252874910831451,-0.1503530889749527,-0.087226055562496185,-0.034570422023534775, 
  /* [22][0][][] */ 0.10200393199920654,0.084630496799945831,0.1195685863494873,0.099842987954616547,0.085685253143310547,0.11219257116317749,-0.073108993470668793,0.037146393209695816, 
  /* [23][0][][] */ -0.32871642708778381,-0.24809810519218445,-0.083683766424655914,0.12915751338005066,0.034053731709718704,-0.22103026509284973,-0.28517484664916992,0.14151917397975922, 
  /* [24][0][][] */ -0.042912773787975311,0.022191882133483887,-0.019485162571072578,-0.046891722828149796,0.041648436337709427,-0.032682869583368301,0.017411459237337112,0.012863164767622948, 
  /* [25][0][][] */ 0.28248602151870728,-0.12892694771289825,-0.17452020943164825,-0.082178749144077301,0.14964425563812256,0.18810464441776276,0.088086880743503571,-0.029514823108911514, 
  /* [26][0][][] */ 0.085726872086524963,0.066147208213806152,-0.057355821132659912,-0.064367197453975677,-0.052058059722185135,0.14305047690868378,0.013442991301417351,-0.074260681867599487, 
  /* [27][0][][] */ 0.044654492288827896,-0.01377860177308321,0.023697538301348686,0.062668107450008392,-0.021356675773859024,0.048524156212806702,0.012364402413368225,0.021300867199897766, 
  /* [28][0][][] */ 0.034775029867887497,-0.047948461025953293,0.077505432069301605,0.075553432106971741,0.012802527286112309,0.089753784239292145,0.10960591584444046,-0.00016421248437836766, 
  /* [29][0][][] */ 0.027631193399429321,-0.059597767889499664,0.17662452161312103,-0.14946110546588898,-0.15813304483890533,0.15592795610427856,-0.04480622336268425,0.13425934314727783, 
  /* [30][0][][] */ 0.094141043722629547,0.11156175285577774,0.13885957002639771,-0.019368914887309074,-0.058189772069454193,0.095862776041030884,0.021461421623826027,-0.039349440485239029, 
  /* [31][0][][] */ -0.064661197364330292,-0.040252685546875,-0.28230094909667969,-0.098152928054332733,0.054058697074651718,-0.029853511601686478,0.031754616647958755,-0.063718445599079132, 
  /* [32][0][][] */ 0.1723935604095459,-0.06233765184879303,-0.16156648099422455,0.051116641610860825,-0.19326336681842804,0.18124498426914215,0.13560059666633606,-0.068689398467540741, 
  /* [33][0][][] */ -0.024352068081498146,-0.024513283744454384,-0.035833083093166351,-0.031016813591122627,0.052017487585544586,0.030506327748298645,-0.032553207129240036,-0.044296190142631531, 
  /* [34][0][][] */ -0.029805263504385948,0.051615431904792786,0.019966727122664452,0.069837614893913269,-0.064470820128917694,0.078441701829433441,0.13132581114768982,-0.071879997849464417, 
  /* [35][0][][] */ 0.047743968665599823,0.20215202867984772,0.05299387127161026,0.049412090331315994,0.13208600878715515,-0.064076192677021027,-0.065329402685165405,0.028096472844481468, 
  /* [36][0][][] */ -0.10076368600130081,-0.037633027881383896,0.11465569585561752,-0.11559524387121201,0.11838256567716599,0.0078925089910626411,-0.073585912585258484,0.081627681851387024, 
  /* [37][0][][] */ 0.0034052191767841578,-0.011720853857696056,0.026769280433654785,0.027156390249729156,-0.01612386666238308,-0.013014178723096848,-0.0087714297696948051,0.025824142619967461, 
  /* [38][0][][] */ 0.038410849869251251,-0.03174339234828949,-0.039992980659008026,0.039702426642179489,-0.039819054305553436,-0.042837731540203094,0.04298776388168335,0.035064678639173508, 
  /* [39][0][][] */ -0.19127291440963745,-0.31756305694580078,-0.23667974770069122,-0.37193563580513,0.13552026450634003,-0.2494790256023407,0.052425283938646317,0.090217389166355133, 
  /* [40][0][][] */ 0.15942838788032532,-0.127580925822258,0.14080414175987244,0.14379577338695526,0.12222570925951004,0.15807734429836273,0.11804333329200745,-0.15818379819393158, 
  /* [41][0][][] */ 0.10858656466007233,0.070475310087203979,0.10323065519332886,0.098336376249790192,-0.071465469896793365,0.11333465576171875,-0.12251372635364532,-0.075565479695796967, 
  /* [42][0][][] */ 0.077768102288246155,-0.030546858906745911,-0.0069960765540599823,0.014667230658233166,-0.051742807030677795,0.070099674165248871,-0.011133141815662384,-0.030213609337806702, 
  /* [43][0][][] */ -0.0066131544299423695,-0.013069084845483303,0.0065841777250170708,0.0052798916585743427,-0.0086174532771110535,0.0098732300102710724,0.0091750249266624451,0.012616269290447235, 
  /* [44][0][][] */ 0.03796730563044548,0.030763581395149231,0.026574643328785896,0.014864305034279823,0.042585495859384537,0.014152582734823227,-0.036940749734640121,-0.029034407809376717, 
  /* [45][0][][] */ -0.055872742086648941,-0.061844643205404282,0.037228167057037354,-0.076763324439525604,0.074897758662700653,-0.078198947012424469,-0.03395211324095726,0.068381644785404205, 
  /* [46][0][][] */ 0.096108533442020416,-0.12725852429866791,0.1098286509513855,-0.14621809124946594,-0.10021273791790009,0.01481174398213625,-0.024362225085496902,0.1833694726228714, 
  /* [47][0][][] */ -0.18154315650463104,-0.074957244098186493,-0.17723371088504791,0.24045549333095551,0.099905140697956085,-0.18906819820404053,-0.14414864778518677,0.12108994275331497, 
};
const TfArray<4, int> tensor_dimension20 = { 4, { 48,1,1,8 } };
const ALIGN(16) float tensor_data21[8*1*1*48] = { 
  /* [0][0][][] */ 0.36730366945266724,-0.29489359259605408,-0.43229186534881592,0.1264164000749588,-0.27956488728523254,-0.43046346306800842,-0.41324204206466675,-0.4387800395488739,0.1222127303481102,-0.26848357915878296,0.38581764698028564,-0.24547052383422852,0.68860805034637451,0.37114739418029785,0.22848595678806305,-0.20740130543708801,0.48804649710655212,0.46787077188491821,0.34526091814041138,0.39823490381240845,0.47491753101348877,-0.20997269451618195,-0.53828948736190796,0.22291660308837891,0.59847736358642578,0.24775697290897369,0.40325269103050232,-0.051081143319606781,-0.43682876229286194,-0.03029097244143486,-0.25223097205162048,-0.37083345651626587,0.4245140552520752,0.60583549737930298,0.38828974962234497,0.18370941281318665,0.39619690179824829,-0.44112354516983032,0.35415726900100708,-0.16589060425758362,-0.25082308053970337,0.35278639197349548,0.48635920882225037,0.20261003077030182,0.41278073191642761,-0.074210561811923981,-0.011576752178370953,0.14732751250267029, 
  /* [1][0][][] */ -0.13939268887042999,-0.19966870546340942,0.25312840938568115,-0.18630962073802948,-0.38637524843215942,0.20903010666370392,-0.21481628715991974,-0.24860982596874237,-0.21183305978775024,0.27495899796485901,-0.28564351797103882,0.21775196492671967,0.30383896827697754,-0.2321203202009201,0.26669487357139587,-0.013080412521958351,-0.19691887497901917,-0.34197092056274414,-0.071209274232387543,-0.20914046466350555,-0.20310910046100616,0.27992686629295349,-0.26542934775352478,-0.42632174491882324,-0.24632498621940613,-0.19047458469867706,-0.17595201730728149,-0.27727094292640686,0.23670750856399536,-0.051784772425889969,0.1455618292093277,0.19539253413677216,-0.37023743987083435,-0.16087327897548676,-0.31041473150253296,0.2493949830532074,-0.12993162870407104,0.14920526742935181,-0.16783635318279266,-0.084750786423683167,0.29768580198287964,-0.054128002375364304,0.36868700385093689,-0.24615083634853363,0.07941388338804245,0.39761456847190857,0.34503969550132751,0.017192166298627853, 
  /* [2][0][][] */ 0.46776366233825684,0.44069492816925049,-0.38437670469284058,0.52075237035751343,0.95325237512588501,-0.51428127288818359,-0.38252890110015869,-1.1764249801635742,0.57416480779647827,-0.57997459173202515,0.5452764630317688,-0.63443571329116821,0.39879682660102844,-0.22498935461044312,-0.48929327726364136,-0.63569492101669312,0.5020451545715332,1.1132324934005737,-0.57274198532104492,0.50263172388076782,0.52698367834091187,-0.62668347358703613,0.40461558103561401,0.34490713477134705,0.69687211513519287,0.72581309080123901,0.53683143854141235,0.94963240623474121,-0.49522480368614197,-0.061204709112644196,0.44680657982826233,-0.7534717321395874,1.2827993631362915,0.70420217514038086,0.13351598381996155,-0.49296501278877258,0.44092759490013123,-0.79262650012969971,0.54410034418106079,-0.61155474185943604,-0.52027463912963867,0.57265633344650269,-0.71407407522201538,0.72066199779510498,0.50977158546447754,0.98971003293991089,-0.82107383012771606,0.3261198103427887, 
  /* [3][0][][] */ 0.82941645383834839,-1.2398717403411865,-0.87665241956710815,-0.18283587694168091,0.1702837198972702,-0.0670790895819664,-0.0070729237049818039,0.19246584177017212,0.11341895908117294,0.36884438991546631,-0.52859729528427124,0.4582219123840332,1.0235432386398315,0.74667114019393921,1.1782537698745728,-0.41269290447235107,0.7469143271446228,-0.66924083232879639,-0.33686667680740356,0.49607124924659729,-0.4192427396774292,-1.3857752084732056,-0.25939527153968811,0.41016244888305664,-0.28208035230636597,-0.49449348449707031,0.12279316037893295,-0.86038219928741455,-0.2068120539188385,0.065164275467395782,0.27932655811309814,1.0912275314331055,-0.45863181352615356,0.040510796010494232,-0.52957552671432495,0.80146574974060059,0.66152006387710571,-0.045404206961393356,-0.58573943376541138,-0.27557584643363953,0.29566892981529236,0.5582306981086731,0.78271025419235229,-0.77020180225372314,0.54746538400650024,-1.3325899839401245,-0.088184505701065063,0.95028495788574219, 
  /* [4][0][][] */ -0.57347273826599121,0.49575111269950867,0.49919220805168152,0.37600415945053101,0.04101988673210144,0.34166085720062256,0.34515339136123657,0.49981981515884399,0.31356745958328247,0.49282938241958618,-0.58888065814971924,0.5604366660118103,-0.15552809834480286,-0.40888044238090515,-0.36099812388420105,0.29939550161361694,0.055937092751264572,-0.88201850652694702,-0.17751450836658478,-0.47060182690620422,-1.2938649654388428,0.12224394828081131,0.1334364116191864,-0.42542433738708496,-0.48490351438522339,-0.39035820960998535,-0.35648262500762939,0.12496425956487656,0.40957680344581604,-0.13175609707832336,0.43160426616668701,0.17953744530677795,0.27004969120025635,-0.93266522884368896,-0.22338069975376129,-0.28724026679992676,-0.4413897693157196,0.55509650707244873,-0.41943985223770142,0.44036713242530823,0.29975271224975586,-0.34617486596107483,0.35298320651054382,-0.67099243402481079,-0.8066210150718689,-0.071962557733058929,0.22997903823852539,0.6649901270866394, 
  /* [5][0][][] */ 0.43392741680145264,0.638327956199646,-0.51758372783660889,0.17967626452445984,0.6774255633354187,0.35824316740036011,-0.083584047853946686,0.42576244473457336,0.38196024298667908,-0.33499717712402344,0.56299805641174316,-0.55918186902999878,0.52272862195968628,0.34792137145996094,-0.18600212037563324,-0.28315222263336182,-0.025658845901489258,0.57108831405639648,-0.5632774829864502,0.47715499997138977,0.42393627762794495,-0.44507864117622375,-0.53408247232437134,0.52476197481155396,0.37005189061164856,-0.08736090362071991,0.28205215930938721,-0.40170362591743469,-0.55680286884307861,-0.41853287816047668,0.084002025425434113,0.63269954919815063,-0.11764711886644363,0.40546944737434387,-0.37022686004638672,-0.45216271281242371,0.42075479030609131,-0.37257891893386841,0.3463427722454071,-0.52337408065795898,-0.4139288067817688,-0.099500909447669983,-0.51483249664306641,0.70019370317459106,0.71749436855316162,-0.92437785863876343,0.0014201214071363211,0.067767433822154999, 
  /* [6][0][][] */ 0.25777524709701538,-0.51326286792755127,-0.31909537315368652,-0.38803601264953613,0.18150059878826141,-0.3399234414100647,-0.35278287529945374,-0.18059343099594116,0.40602293610572815,-0.3314792811870575,0.5240592360496521,-0.43936413526535034,0.088203191757202148,0.38335022330284119,-0.55894041061401367,-0.4053134024143219,-0.32073616981506348,0.25562581419944763,-0.060646265745162964,0.26656946539878845,0.2365279346704483,-0.23603375256061554,-0.22657176852226257,0.21142356097698212,0.22618472576141357,0.41677027940750122,0.25067305564880371,-0.35038775205612183,-0.27468758821487427,-0.013901999220252037,-0.5247923731803894,-0.28957366943359375,0.71394962072372437,0.26899716258049011,0.01826154813170433,-0.3025461733341217,0.2043091207742691,-0.40332147479057312,0.35098275542259216,-0.41735005378723145,-0.34986779093742371,0.37577137351036072,-0.64038962125778198,0.73817789554595947,0.39186584949493408,0.19728955626487732,-0.43954876065254211,-0.11463768035173416, 
  /* [7][0][][] */ 0.48388710618019104,-0.54912370443344116,-0.70204544067382812,-0.40185275673866272,-0.57829558849334717,-0.30710893869400024,-0.91960442066192627,-0.074392683804035187,0.34388050436973572,-0.46807950735092163,0.45642116665840149,-0.62735229730606079,0.10588914155960083,0.45172017812728882,-0.73595601320266724,-0.61602169275283813,0.32004198431968689,0.28809666633605957,0.017749583348631859,0.34438130259513855,0.31037995219230652,-0.60773164033889771,0.94485121965408325,0.49124136567115784,0.15407648682594299,0.58230143785476685,0.52156370878219604,0.68729668855667114,-0.40269482135772705,-0.5974164605140686,-1.0682045221328735,-0.48316383361816406,-0.44177168607711792,0.40891224145889282,0.300944983959198,0.76287639141082764,0.44652551412582397,-0.64980286359786987,0.42760577797889709,-0.67588037252426147,-0.50744867324829102,0.4597201943397522,-0.36892831325531006,1.0999226570129395,0.48010531067848206,0.32142198085784912,-0.84470564126968384,-0.21462331712245941, 
};
const TfArray<4, int> tensor_dimension21 = { 4, { 8,1,1,48 } };
const ALIGN(16) float tensor_data22[48*1*1*8] = { 
  /* [0][0][][] */ 0.047432411462068558,-0.083190746605396271,0.084122233092784882,-0.10457979887723923,-0.084319397807121277,0.080922253429889679,0.10384191572666168,0.0044228476472198963, 
  /* [1][0][][] */ 0.026599016040563583,0.090893097221851349,0.030341014266014099,0.17415808141231537,0.079364463686943054,0.17568553984165192,0.063218593597412109,0.14587192237377167, 
  /* [2][0][][] */ -0.052071575075387955,3.739609383046627e-05,-0.035166598856449127,-0.051288813352584839,0.03784487396478653,-0.058871645480394363,-0.011680044233798981,0.046488009393215179, 
  /* [3][0][][] */ 0.04506620392203331,0.051632292568683624,0.1000235378742218,-0.048803556710481644,-0.058812934905290604,0.059834171086549759,0.059141140431165695,0.067383542656898499, 
  /* [4][0][][] */ 0.034761521965265274,-0.006178657989948988,0.044022455811500549,-0.015748808160424232,-0.02769082598388195,-0.0033633059356361628,0.035109996795654297,0.040699683129787445, 
  /* [5][0][][] */ -0.0052323993295431137,0.0041410415433347225,-0.0045594405382871628,0.0020794263109564781,0.0081886379048228264,-0.0088617466390132904,-0.0080809630453586578,-0.0012815794907510281, 
  /* [6][0][][] */ -0.02385588176548481,0.015690075233578682,0.0038343861233443022,-0.02470891922712326,0.056279409676790237,0.0053406599909067154,-0.051422014832496643,-0.054842490702867508, 
  /* [7][0][][] */ -0.004069360438734293,-0.0034509163815528154,0.0025656893849372864,-0.0029486995190382004,-0.0043391217477619648,0.0045790183357894421,-0.002477601170539856,0.0025181097444146872, 
  /* [8][0][][] */ 0.044923346489667892,-0.078762568533420563,0.025355348363518715,-0.091268979012966156,0.040495913475751877,0.12693542242050171,0.042793571949005127,0.0024351766332983971, 
  /* [9][0][][] */ 0.1214737668633461,-0.042153604328632355,0.0057953931391239166,-0.14613421261310577,-0.078643321990966797,-0.024086024612188339,0.032697770744562149,0.1406140923500061, 
  /* [10][0][][] */ -0.0022219566162675619,0.0037073846906423569,0.00027533012325875461,0.0004241734859533608,0.0013862866908311844,-0.0030097549315541983,-0.0031075035221874714,-0.0022543133236467838, 
  /* [11][0][][] */ -0.023574715480208397,0.013095412403345108,-0.06297709047794342,0.0062850895337760448,0.033861994743347168,-0.0010897197062149644,-0.0091811260208487511,-0.041950177401304245, 
  /* [12][0][][] */ -0.074826337397098541,0.054582584649324417,-0.01736079528927803,-0.05018305778503418,0.073459438979625702,-0.07946883887052536,-0.057148877531290054,0.011412069201469421, 
  /* [13][0][][] */ -0.0045623513869941235,0.012284643016755581,-0.008253057487308979,-0.014103482477366924,0.0091148251667618752,-0.0082619534805417061,-0.010325144976377487,-0.014049352146685123, 
  /* [14][0][][] */ 0.011036221869289875,0.013430900871753693,0.0053546256385743618,0.044813089072704315,-0.0047096721827983856,0.040606729686260223,0.039204109460115433,-0.015876211225986481, 
  /* [15][0][][] */ 0.0018288260325789452,-0.0056499820202589035,-0.0083873271942138672,-0.019442304968833923,-0.020870372653007507,0.01803385466337204,0.0088418126106262207,0.017999796196818352, 
  /* [16][0][][] */ 0.066033095121383667,0.085274666547775269,-0.030639380216598511,0.0019027660600841045,0.060722228139638901,-0.10985210537910461,-0.023819649592041969,-0.087824977934360504, 
  /* [17][0][][] */ 0.0655331090092659,0.083644077181816101,0.068339519202709198,0.028977701440453529,-0.07475011795759201,0.049650739878416061,0.017377682030200958,-0.027665490284562111, 
  /* [18][0][][] */ 0.11777523905038834,-0.030093252658843994,0.085994891822338104,0.080031171441078186,0.055264867842197418,-0.059732027351856232,0.063144996762275696,0.091048277914524078, 
  /* [19][0][][] */ 0.00056919135386124253,-0.15786649286746979,-0.077364556491374969,0.048676643520593643,0.0018765445565804839,0.041951965540647507,0.047065529972314835,0.072667576372623444, 
  /* [20][0][][] */ 0.043760102242231369,-0.0069141150452196598,0.081629753112792969,-0.035340838134288788,-0.12525716423988342,0.088379770517349243,-0.035157036036252975,-0.049169048666954041, 
  /* [21][0][][] */ 0.012939504347741604,-0.00087747210636734962,0.010727211833000183,0.011414152570068836,-0.013998101465404034,0.0082684541121125221,0.0091777704656124115,0.0036293806042522192, 
  /* [22][0][][] */ -0.0065801837481558323,-0.019399240612983704,-0.0037332028150558472,-0.027777569368481636,0.024496367201209068,0.0059034307487308979,-0.023432279005646706,-0.0014541624113917351, 
  /* [23][0][][] */ -0.061530232429504395,0.034395914524793625,0.076853975653648376,-0.015555140562355518,-0.049539927393198013,-0.00011822018859675154,-0.028856685385107994,0.05042630061507225, 
  /* [24][0][][] */ -0.049754668027162552,-0.082587443292140961,-0.054642572999000549,0.084288530051708221,-0.079654105007648468,0.036972098052501678,0.012099652551114559,0.061655383557081223, 
  /* [25][0][][] */ -0.062321584671735764,-0.059808079153299332,-0.072761915624141693,0.012699266895651817,0.128496453166008,0.051186781376600266,-0.084878154098987579,0.047089729458093643, 
  /* [26][0][][] */ -0.12743718922138214,0.011243171989917755,0.019496437162160873,-0.038282353430986404,0.056772816926240921,-0.10555138438940048,0.04547114297747612,0.046819690614938736, 
  /* [27][0][][] */ -0.036931723356246948,0.051464926451444626,-0.0030222476925700903,-0.059374433010816574,0.038349535316228867,-0.03522418811917305,0.046533934772014618,0.033687587827444077, 
  /* [28][0][][] */ -0.017609033733606339,-0.025744182989001274,-0.058057557791471481,-0.010125084780156612,0.031058061867952347,0.026519812643527985,-0.035912930965423584,-0.00026425177929922938, 
  /* [29][0][][] */ 0.13106542825698853,-0.080352313816547394,-0.084935575723648071,0.18602986633777618,0.035305477678775787,0.14493916928768158,0.088576644659042358,-0.017351165413856506, 
  /* [30][0][][] */ -0.014878276735544205,0.007121626753360033,0.0077994586899876595,-0.0094404704868793488,0.016662299633026123,0.0058093932457268238,-0.010421067476272583,-0.012828394770622253, 
  /* [31][0][][] */ 0.037343472242355347,0.019151905551552773,-0.059583637863397598,-0.0061135971918702126,0.057368438690900803,-0.032028425484895706,0.0041847354732453823,-0.068223960697650909, 
  /* [32][0][][] */ 0.0013534948229789734,0.021528488025069237,-0.011024096049368382,-0.012786243110895157,0.0049336920492351055,-0.020753616467118263,-0.016243668273091316,-0.0028448442462831736, 
  /* [33][0][][] */ 0.10507915169000626,0.028945151716470718,-0.1504567563533783,0.085516497492790222,-0.024084817618131638,-0.06528308242559433,-0.11508605629205704,0.01809990406036377, 
  /* [34][0][][] */ -0.076867446303367615,0.019898951053619385,0.042444054037332535,-0.12603738903999329,0.066101819276809692,-0.079779781401157379,-0.12634740769863129,0.068209104239940643, 
  /* [35][0][][] */ 0.043811026960611343,-0.026261471211910248,0.060331091284751892,-0.10449007898569107,-0.0016400041058659554,-0.050211489200592041,-0.092371992766857147,-0.11550754308700562, 
  /* [36][0][][] */ 0.096089869737625122,0.00078625231981277466,-0.037671677768230438,0.063449189066886902,-0.087929539382457733,0.071686163544654846,-0.075276099145412445,-0.030194692313671112, 
  /* [37][0][][] */ -0.10763324052095413,-0.11452475190162659,-0.27316391468048096,0.29574194550514221,0.13173893094062805,-0.050310634076595306,0.11037031561136246,0.12235619127750397, 
  /* [38][0][][] */ -0.17186211049556732,-0.05463433638215065,-0.13358832895755768,-0.017865290865302086,-0.053315058350563049,-0.07635776698589325,-0.077822543680667877,-0.0012330616591498256, 
  /* [39][0][][] */ 0.00043887252104468644,0.0027265078388154507,-0.0006725878338329494,-0.0022624828852713108,-0.0013401448959484696,-0.0011962848948314786,-0.0020032685715705156,-0.0022246420849114656, 
  /* [40][0][][] */ 0.011910154484212399,0.0084828771650791168,-0.014720245264470577,0.04949328675866127,0.027279745787382126,0.027462679892778397,-0.010442783124744892,-0.036371245980262756, 
  /* [41][0][][] */ 0.079931281507015228,0.11717721074819565,0.066971950232982635,0.15217892825603485,-0.054272182285785675,0.10621886700391769,-0.18859890103340149,-0.0074645774438977242, 
  /* [42][0][][] */ 0.054458256810903549,-0.23561848700046539,-0.026114566251635551,0.11647806316614151,-0.058323722332715988,0.05330388993024826,0.084602236747741699,-0.041919253766536713, 
  /* [43][0][][] */ 0.0068161413073539734,-0.037928979843854904,0.025466868653893471,0.025579558685421944,-0.053638182580471039,0.027397086843848228,0.030225459486246109,0.035972028970718384, 
  /* [44][0][][] */ -0.12265057116746902,-0.14039488136768341,0.133771613240242,-0.21475949883460999,0.16653271019458771,0.10076990723609924,0.13322432339191437,0.094469323754310608, 
  /* [45][0][][] */ -0.0028330562636256218,-0.0023006706032902002,-0.0038637949619442225,-0.0040748137980699539,0.0034154753666371107,0.0038466278929263353,0.0025950020644813776,0.0022223684936761856, 
  /* [46][0][][] */ 0.0069659133441746235,0.0068722669966518879,0.016833828762173653,0.0030179372988641262,-0.029005425050854683,0.033944398164749146,-0.0039934944361448288,-0.0044905045069754124, 
  /* [47][0][][] */ 0.11487852036952972,-0.098765797913074493,0.15771535038948059,-0.096372649073600769,0.21364012360572815,0.20162394642829895,0.016933508217334747,0.014984008856117725, 
};
const TfArray<4, int> tensor_dimension22 = { 4, { 48,1,1,8 } };
const ALIGN(16) float tensor_data23[16*1*1*48] = { 
  /* [0][0][][] */ 0.044370848685503006,-0.28397727012634277,-0.34731569886207581,0.092567294836044312,0.2203405350446701,0.51014167070388794,0.46907562017440796,0.020108845084905624,0.31749200820922852,0.098512329161167145,0.53408688306808472,0.092742256820201874,-0.69441807270050049,0.3564872145652771,-0.45165213942527771,0.53719449043273926,-0.19107925891876221,-0.43610930442810059,0.48722672462463379,0.67538285255432129,0.049187101423740387,-0.21439135074615479,-0.60344892740249634,-0.17717079818248749,0.41893306374549866,0.40040257573127747,0.44516986608505249,0.3342631459236145,-0.36533886194229126,0.33770114183425903,0.032021671533584595,-0.39280050992965698,0.50792235136032104,-0.34142294526100159,-0.28943243622779846,-0.49562892317771912,-0.34143325686454773,0.32470840215682983,-0.41946074366569519,0.51251852512359619,-0.470521479845047,-0.35184600949287415,0.081098876893520355,-0.24595203995704651,-0.42247012257575989,-0.14349901676177979,-0.37896180152893066,0.23874932527542114, 
  /* [1][0][][] */ -0.23165149986743927,0.049223743379116058,0.34373384714126587,-0.021294966340065002,-0.58949488401412964,0.53204697370529175,0.28253766894340515,0.16043165326118469,-0.53942906856536865,0.59118956327438354,0.27853164076805115,0.53573083877563477,-0.93915414810180664,0.62158650159835815,-0.47239476442337036,0.33834898471832275,-0.60609602928161621,-0.1060761883854866,0.032700993120670319,-0.59661155939102173,-0.068296708166599274,0.38313001394271851,-0.39930689334869385,-0.45830392837524414,0.67983800172805786,0.28711888194084167,-0.1001870259642601,0.53799706697463989,-0.24107019603252411,0.46258386969566345,-0.36693596839904785,0.4206199049949646,0.61320680379867554,-0.3542327880859375,0.57772672176361084,-0.8674655556678772,-0.23377180099487305,-0.39851173758506775,-0.31737750768661499,-0.10965701937675476,-1.0580302476882935,0.25790366530418396,0.85367047786712646,-0.62411296367645264,-0.41515365242958069,0.010765275917947292,-0.1668696254491806,-0.54845166206359863, 
  /* [2][0][][] */ -0.32562634348869324,-0.11896409094333649,-0.0095667680725455284,-0.46044206619262695,0.24302399158477783,0.3671337366104126,-0.37660267949104309,-0.16652029752731323,0.38976642489433289,0.020324598997831345,0.28344136476516724,0.28036004304885864,-0.36480474472045898,-0.56236332654953003,-0.40303683280944824,0.37025344371795654,-0.107601098716259,0.031841237097978592,-0.54372239112854004,-0.56331974267959595,0.38594228029251099,-0.15240319073200226,-0.17820964753627777,-0.8514522910118103,0.86685425043106079,-0.33238443732261658,-0.62364059686660767,0.54856598377227783,-0.33311665058135986,-0.07252328097820282,0.55442237854003906,0.57912540435791016,-0.18016298115253448,-0.42954370379447937,-0.057243511080741882,-0.70739942789077759,0.17143571376800537,0.80508065223693848,-0.091393306851387024,0.62663257122039795,-0.46028310060501099,-0.69650006294250488,-0.32830777764320374,0.66187447309494019,0.090154491364955902,0.33083942532539368,0.49779459834098816,-0.34903037548065186, 
  /* [3][0][][] */ 0.47352877259254456,-0.37843513488769531,0.22313007712364197,0.74750083684921265,-0.14675857126712799,-0.39892613887786865,0.6271967887878418,0.39192375540733337,-1.1232098340988159,-0.91766929626464844,-0.46688482165336609,1.0794591903686523,-0.048580721020698547,-0.52947688102722168,-0.21349269151687622,0.35187554359436035,-0.81871426105499268,-0.43090364336967468,0.55547624826431274,-0.57679110765457153,0.45032188296318054,0.12983308732509613,-0.16015863418579102,0.68392282724380493,-1.0093715190887451,-0.26151522994041443,-0.35868376493453979,-0.63210707902908325,-0.46015116572380066,-0.22024744749069214,0.090283423662185669,0.92263060808181763,-0.10338720679283142,0.45041555166244507,0.76384609937667847,0.64978963136672974,0.67640846967697144,-0.025665283203125,0.07213909924030304,-0.87364053726196289,0.48773059248924255,-0.36105769872665405,0.25276193022727966,-0.44362762570381165,-0.3683716356754303,0.66443264484405518,0.50757116079330444,-0.5596998929977417, 
  /* [4][0][][] */ 0.37807938456535339,-0.69172525405883789,-0.01223329734057188,0.44219836592674255,0.16627070307731628,0.3013555109500885,0.33583945035934448,-0.30619633197784424,0.40828403830528259,-0.12591776251792908,0.59168785810470581,-0.50712102651596069,-0.12167502194643021,0.43179470300674438,-0.22809705138206482,0.039233967661857605,0.066421419382095337,0.50447815656661987,0.20624680817127228,-0.17873340845108032,-0.21865250170230865,0.24283923208713531,0.054402213543653488,-0.32376223802566528,0.60029923915863037,0.025591667741537094,0.41393133997917175,0.73283278942108154,-0.36865946650505066,0.16803964972496033,0.39381581544876099,0.64902526140213013,0.6128278374671936,-0.21691036224365234,-0.40933653712272644,-0.73640590906143188,-0.46314096450805664,0.47059547901153564,-0.31609541177749634,0.61664754152297974,-0.35620051622390747,-0.57219475507736206,0.23701980710029602,0.034490033984184265,0.21845690906047821,0.093859441578388214,-0.18139646947383881,-0.068823844194412231, 
  /* [5][0][][] */ 0.0063211414963006973,-0.82456940412521362,-0.37215146422386169,0.55823999643325806,0.7676396369934082,0.27723437547683716,-0.40762346982955933,-0.12122409045696259,0.53653168678283691,-0.48762759566307068,0.8609192967414856,-0.74602890014648438,0.3884621262550354,-0.56920713186264038,-0.46078327298164368,-0.2541046142578125,0.97725027799606323,0.05957716703414917,0.33998596668243408,-0.90793293714523315,-0.40804001688957214,-0.22835579514503479,0.54360204935073853,-0.01290396973490715,0.57920306921005249,-0.67450135946273804,0.17416784167289734,-0.63321536779403687,-0.44993868470191956,-0.66313451528549194,-0.47868832945823669,0.01434908714145422,-0.44690442085266113,-0.53977340459823608,0.079904660582542419,-0.47298839688301086,0.27421107888221741,-0.2611854076385498,0.1795312911272049,0.56585001945495605,0.48747819662094116,0.25780093669891357,-0.015484192408621311,0.40641972422599792,-0.68872725963592529,-0.17036812007427216,0.36493778228759766,-0.51273256540298462, 
  /* [6][0][][] */ 0.2912711501121521,0.30106309056282043,-0.37194246053695679,-0.36275449395179749,-0.40866243839263916,0.51796114444732666,-0.27857097983360291,-0.062445688992738724,0.47852310538291931,0.55250257253646851,0.4160790741443634,0.11965992301702499,-0.47222951054573059,0.45684969425201416,0.384998619556427,0.045112762600183487,-0.21233241260051727,0.74038791656494141,0.0097141386941075325,0.52197080850601196,-0.48033377528190613,0.30267989635467529,0.28171616792678833,-0.53420829772949219,0.73521071672439575,0.43232977390289307,0.50758790969848633,0.39087721705436707,-0.30858123302459717,0.29150849580764771,0.4456045925617218,-0.46893149614334106,0.49230456352233887,-0.53133803606033325,-0.36270803213119507,-0.60841953754425049,-0.45582515001296997,0.40270635485649109,-0.37606769800186157,0.59808474779129028,-0.4110354483127594,0.40882331132888794,-0.50512957572937012,-0.26869988441467285,0.33017817139625549,-0.41625493764877319,-0.41899329423904419,0.42993888258934021, 
  /* [7][0][][] */ -1.0001194477081299,0.56284362077713013,-0.80373138189315796,-1.3042820692062378,-0.78677904605865479,0.75520658493041992,0.14165765047073364,0.13437195122241974,0.39726737141609192,0.83175212144851685,0.36314600706100464,0.77046096324920654,-0.23261013627052307,0.49614155292510986,-0.58273470401763916,-0.075334757566452026,-0.70451611280441284,-0.43478310108184814,-0.57310616970062256,-1.2325096130371094,-0.83097749948501587,-0.8423733115196228,-0.0962538942694664,-0.42520105838775635,0.20813435316085815,0.38034707307815552,0.32353800535202026,0.32160097360610962,-0.12077246606349945,0.48729339241981506,0.099608436226844788,-1.3815251588821411,0.38249537348747253,-0.57105505466461182,-0.55318236351013184,-0.39976918697357178,-0.44251149892807007,0.3747774064540863,-0.49195587635040283,0.42324772477149963,-0.45514771342277527,0.51328635215759277,-0.98724758625030518,-0.47908121347427368,0.6263575553894043,0.6914362907409668,-0.27923157811164856,0.89423704147338867, 
  /* [8][0][][] */ -0.11502625793218613,-1.3233693838119507,0.83205068111419678,0.80582213401794434,0.81935244798660278,-1.2170614004135132,-0.8837394118309021,-0.38941627740859985,0.34208297729492188,-0.40622830390930176,-0.089726671576499939,0.21662171185016632,0.3918755054473877,-0.89700186252593994,0.85565704107284546,-0.20869916677474976,1.2783750295639038,1.2171065807342529,-0.29644215106964111,-1.1941629648208618,0.15787373483181,1.0215227603912354,-1.6789839267730713,0.28492853045463562,0.67759358882904053,-1.4826407432556152,-0.5333784818649292,0.97008621692657471,0.75794452428817749,-0.085053808987140656,0.53430694341659546,1.1597522497177124,-0.59997880458831787,0.62446689605712891,0.72207647562026978,-1.2508842945098877,-1.2318592071533203,0.51227849721908569,-0.55002152919769287,-0.72349196672439575,0.076296791434288025,0.17291361093521118,0.073225751519203186,0.24907515943050385,-0.25162804126739502,-0.96703523397445679,0.24045081436634064,-0.33688756823539734, 
  /* [9][0][][] */ 0.40375098586082458,0.23422195017337799,0.55639070272445679,0.83509975671768188,0.2868315577507019,0.13134211301803589,-0.1566435694694519,0.59442895650863647,0.89859205484390259,-0.074149526655673981,0.62111932039260864,0.12813930213451385,-0.50486475229263306,-0.34053614735603333,0.39217585325241089,-0.1339469701051712,0.73272842168807983,-0.61668705940246582,-0.041367180645465851,0.57703793048858643,0.6914178729057312,0.67011928558349609,-0.13661903142929077,0.34519484639167786,0.024207664653658867,-0.29827743768692017,-0.08597978949546814,0.35831406712532043,0.058154046535491943,0.1457819789648056,-0.27219405770301819,-0.41011026501655579,0.24888323247432709,-0.094340644776821136,0.25678294897079468,0.07497338205575943,-0.10216660797595978,-0.18951407074928284,0.1236642524600029,0.23671691119670868,-0.17258934676647186,0.51903033256530762,0.59924358129501343,-0.37791818380355835,-0.42001137137413025,-0.45141029357910156,-0.42656567692756653,-0.72035437822341919, 
  /* [10][0][][] */ -0.61261874437332153,0.17094312608242035,-0.047142054885625839,-0.77483046054840088,-0.60098868608474731,0.40383812785148621,-0.56948763132095337,0.1822296530008316,0.34917744994163513,0.65467453002929688,-0.0092986728996038437,0.14669470489025116,-0.10934016108512878,0.19292885065078735,-0.40072715282440186,-0.20124851167201996,-0.64522242546081543,0.34441044926643372,-0.45365288853645325,-0.0085422592237591743,-0.43697530031204224,0.058099206537008286,0.20681792497634888,-0.50612527132034302,0.27890250086784363,0.050210613757371902,0.11886218190193176,0.58488494157791138,0.42112249135971069,0.58715808391571045,0.20332573354244232,0.048647560179233551,-0.14920850098133087,-0.18716330826282501,-0.56283825635910034,-0.16240191459655762,-0.49852907657623291,-0.46268695592880249,0.70635920763015747,0.2460625022649765,-0.7277488112449646,-0.85271608829498291,-0.48567000031471252,-0.39078694581985474,0.39129513502120972,-0.1768321692943573,0.55498605966567993,0.060618575662374496, 
  /* [11][0][][] */ -0.24779553711414337,-0.18443712592124939,0.35153087973594666,-0.031485732644796371,0.59387516975402832,-0.6858675479888916,-0.30922114849090576,-0.45978116989135742,-0.45416417717933655,-0.27402496337890625,-0.59799736738204956,-0.30775097012519836,0.70405638217926025,-0.42762979865074158,0.1464984118938446,-0.36942169070243835,0.59224545955657959,0.50920933485031128,-0.2227931022644043,-0.61151069402694702,-0.71143770217895508,-0.41483393311500549,0.73360908031463623,0.21703074872493744,-0.26031699776649475,-0.33500534296035767,-0.60818099975585938,-0.37050932645797729,-0.58572059869766235,-0.58323431015014648,0.42061138153076172,-0.39653891324996948,-0.57043534517288208,0.46776276826858521,-0.87244951725006104,0.59332293272018433,0.43054679036140442,-0.47941508889198303,0.39857509732246399,-0.44257128238677979,0.32944661378860474,-0.096102669835090637,-0.38946622610092163,0.42579159140586853,-0.41040313243865967,-0.18314835429191589,-0.64446860551834106,0.60630542039871216, 
  /* [12][0][][] */ 0.36886480450630188,0.24015025794506073,0.083715938031673431,0.21391768753528595,0.38731664419174194,-0.11200902611017227,0.27813664078712463,0.093609444797039032,-0.24942025542259216,-0.24953813850879669,-0.32248759269714355,-0.41119977831840515,0.062402401119470596,-0.27194198966026306,0.51487594842910767,-0.12577024102210999,0.32357877492904663,-0.16812142729759216,0.33393344283103943,-0.24580475687980652,-0.3320239782333374,-0.21380218863487244,-0.20443591475486755,0.28683176636695862,0.44855409860610962,0.31114497780799866,-0.29018187522888184,-0.23984943330287933,-0.31405499577522278,-0.37395781278610229,0.26448491215705872,-0.14095041155815125,0.44601306319236755,0.058494843542575836,0.11304223537445068,-0.21339423954486847,0.25706419348716736,-0.42449909448623657,0.844573974609375,0.26329085230827332,0.35481762886047363,0.29014736413955688,0.054053187370300293,-0.29067960381507874,0.1361503005027771,-0.28644812107086182,-0.19175472855567932,0.34285074472427368, 
  /* [13][0][][] */ -0.51090943813323975,0.51913338899612427,-0.42516595125198364,0.81274062395095825,0.48751586675643921,0.67801821231842041,-1.3662258386611938,0.73611342906951904,-0.38264060020446777,0.3247305154800415,0.14952974021434784,0.29622688889503479,-0.6995084285736084,-0.51383721828460693,0.028689958155155182,-0.68857342004776001,0.28316551446914673,-0.77325546741485596,-0.67536592483520508,-0.7904287576675415,1.2162455320358276,0.61714911460876465,-1.2574542760848999,0.56596589088439941,1.6330599784851074,-0.64046937227249146,-0.19116556644439697,1.4031513929367065,0.50409948825836182,0.52187049388885498,-0.6470412015914917,-1.0404907464981079,-0.6118200421333313,0.54615789651870728,0.25281050801277161,-0.64385414123535156,0.11302860081195831,-0.5758928656578064,0.97765111923217773,0.36196652054786682,1.0305368900299072,0.90114825963973999,0.88549882173538208,-0.61359018087387085,-0.80221414566040039,-1.0357873439788818,0.033300932496786118,-0.70811408758163452, 
  /* [14][0][][] */ -0.63093924522399902,0.18610462546348572,0.29113820195198059,-0.42981725931167603,0.2109190821647644,-0.37809562683105469,-0.42437127232551575,-0.10441015660762787,-0.17267346382141113,0.30849668383598328,-0.64487755298614502,0.37963476777076721,0.32598572969436646,-0.47315910458564758,0.84486573934555054,0.42857339978218079,0.4020480215549469,0.57277959585189819,-0.061245404183864594,0.48763912916183472,0.28402742743492126,-0.5866771936416626,0.45506575703620911,0.3821130096912384,-0.55118817090988159,-0.38107678294181824,-0.54327774047851562,-0.85920804738998413,0.46566659212112427,-0.64589136838912964,-0.32111260294914246,-0.68379670381546021,-0.74110478162765503,0.10947109013795853,0.27237614989280701,0.31871151924133301,0.28116697072982788,-0.22337517142295837,0.63107365369796753,-0.56322717666625977,0.72414922714233398,-0.26796877384185791,-0.49185606837272644,0.88758152723312378,-0.48625293374061584,-0.46304234862327576,0.48453745245933533,-0.059095583856105804, 
  /* [15][0][][] */ 0.20416301488876343,-0.61438995599746704,0.19222286343574524,0.33430317044258118,0.1279556006193161,0.74470841884613037,0.62850618362426758,0.44761943817138672,0.56791794300079346,0.15223531424999237,0.48311373591423035,-0.19502840936183929,0.10420189052820206,0.52303725481033325,-1.1040726900100708,0.40542840957641602,-0.42073482275009155,0.085166014730930328,0.63130342960357666,0.56856316328048706,0.38543674349784851,0.2800622284412384,-0.0039388253353536129,-0.21976685523986816,0.31093314290046692,0.70776194334030151,0.62698465585708618,0.60980349779129028,0.27773120999336243,-0.22155222296714783,0.60187315940856934,-0.63991731405258179,0.55299782752990723,-0.26116645336151123,-0.44440197944641113,-0.010143516585230827,-0.12778474390506744,-0.82575529813766479,-1.107417106628418,0.58729410171508789,-0.48020878434181213,0.22076120972633362,0.11402102559804916,-0.54548943042755127,0.65831625461578369,0.52485978603363037,-0.70872688293457031,0.014646165072917938, 
};
const TfArray<4, int> tensor_dimension23 = { 4, { 16,1,1,48 } };
const ALIGN(16) float tensor_data24[96*1*1*16] = { 
  /* [0][0][][] */ -0.026395069435238838,0.067069843411445618,0.072993889451026917,-0.002230226993560791,0.026376035064458847,-0.068063497543334961,0.064385078847408295,-0.0029308623634278774,-0.022910187020897865,0.048105113208293915,0.050073355436325073,-0.075680762529373169,0.019523460417985916,0.048063702881336212,-0.017481876537203789,-0.025073336437344551, 
  /* [1][0][][] */ -0.0001207774257636629,0.00069488800363615155,0.00041612228960730135,-5.8675857872003689e-05,0.00041108252480626106,0.00010016091982834041,0.00061781954718753695,0.0001799277524696663,0.00041345719364471734,-0.0006069029332138598,-0.00021029643539804965,-0.00058591354172676802,-0.00050421158084645867,0.00057129020569846034,6.6104359575547278e-05,0.0005711932317353785, 
  /* [2][0][][] */ -0.0018625875236466527,0.0080533921718597412,-0.0039174566045403481,-0.005632033571600914,0.0083663454279303551,-0.0037937688175588846,0.0049294889904558659,-0.00016997172497212887,-0.0063682929612696171,-0.0052606291137635708,0.0091269547119736671,-0.0068605621345341206,0.0032381047494709492,-0.0028137583285570145,-0.0073646609671413898,0.0067561082541942596, 
  /* [3][0][][] */ 0.22880028188228607,0.18561841547489166,-0.19067670404911041,0.25487479567527771,-0.20842315256595612,-0.16584937274456024,0.17588256299495697,0.16408836841583252,-0.1421380341053009,0.18304702639579773,0.20511505007743835,0.18271102011203766,0.18522551655769348,-0.13510634005069733,0.16715142130851746,0.17293454706668854, 
  /* [4][0][][] */ -0.094694599509239197,0.057793349027633667,0.094763785600662231,-0.083288893103599548,0.081191353499889374,0.095520779490470886,-0.091323226690292358,-0.082954540848731995,-0.092876315116882324,-0.094501547515392303,0.08108549565076828,-0.074758201837539673,-0.083857759833335876,0.035274013876914978,-0.08752412348985672,-0.092045940458774567, 
  /* [5][0][][] */ 0.17632924020290375,-0.18025392293930054,0.14761935174465179,0.12243083119392395,-0.16392648220062256,0.13135460019111633,0.16798983514308929,0.16303563117980957,0.12748421728610992,0.15544235706329346,-0.17821754515171051,0.15862403810024261,-0.14708639681339264,0.15831662714481354,0.17579801380634308,-0.15091352164745331, 
  /* [6][0][][] */ -0.09947812557220459,0.082021556794643402,0.082254841923713684,0.10079552233219147,0.089782744646072388,0.096999667584896088,-0.096883133053779602,-0.093478910624980927,0.11012831330299377,-0.093966014683246613,0.077243216335773468,0.09827018529176712,-0.080500237643718719,-0.09124360978603363,0.082253009080886841,-0.081348635256290436, 
  /* [7][0][][] */ 0.15358303487300873,-0.030677203088998795,0.23190128803253174,0.032440688461065292,-0.15446881949901581,0.073033854365348816,-0.042942088097333908,0.16595159471035004,0.028056349605321884,-0.11232437193393707,-0.048990905284881592,0.077925071120262146,-0.14570829272270203,0.15232941508293152,-0.095251269638538361,-0.072009928524494171, 
